
#include <eml_net.h>
static const float fire_detector_layer_0_biases[16] = { 0.004836f, -0.029567f, 0.087391f, 0.170715f, -0.016172f, -0.143806f, -0.028312f, 0.038164f, 0.060597f, 0.192277f, 0.144466f, -0.003766f, 0.133390f, 0.187596f, 0.153465f, 0.268373f };
static const float fire_detector_layer_0_weights[144] = { -0.709766f, -0.662292f, -0.278270f, -0.415247f, 0.909765f, -0.845254f, -0.155955f, 0.115076f, -0.600621f, 0.491627f, 0.356878f, 0.520655f, -0.171252f, -0.192668f, -0.680239f, -0.110106f, 0.215680f, -0.027574f, -0.114602f, 0.385356f, 0.338312f, 0.128340f, -0.176641f, -0.802272f, -0.105133f, 0.426000f, -0.232631f, -0.399040f, 0.307595f, -0.045434f, -0.394428f, 0.001970f, 0.176490f, -0.380502f, -0.559031f, -0.168095f, -0.034647f, -0.166816f, -0.395853f, 0.211709f, 0.066215f, -0.600797f, 0.733789f, -0.563733f, 0.528394f, 0.608832f, -0.176727f, 0.346769f, 0.271004f, 0.292386f, -0.353922f, -0.208511f, 0.459854f, 0.003956f, -0.477478f, -0.403576f, -0.318462f, -0.423577f, 0.342595f, -0.265368f, 0.351374f, 0.150571f, 0.260713f, 0.317876f, 0.425796f, -0.255383f, 0.386849f, -0.246855f, 0.594648f, 0.077268f, 0.526332f, 0.064719f, -0.162600f, -0.141192f, -0.416475f, 0.167058f, -0.289029f, -0.235674f, 0.408528f, -0.413919f, 0.435614f, -0.117820f, 0.313574f, 0.473518f, -0.217831f, -0.012183f, -0.445523f, 0.289428f, 0.468847f, -0.034341f, 0.022232f, -0.317205f, -0.010263f, -0.573262f, -0.192784f, -0.283810f, -0.005495f, 0.296428f, 0.231578f, 0.011465f, -0.507303f, 0.316126f, 0.292594f, -0.503581f, -0.194790f, 0.194481f, 0.091512f, 0.123843f, 0.266501f, 0.141822f, 0.234640f, -0.199893f, -0.139221f, -0.415280f, -0.108468f, 0.200616f, 0.216948f, 0.456379f, -0.054295f, 0.022961f, 0.054831f, -0.365591f, -0.563177f, -0.343429f, 0.137103f, 0.063008f, -0.201246f, 0.038236f, 0.012481f, 0.449803f, -0.172842f, -0.445653f, -0.144934f, 0.414746f, -0.187411f, -0.427295f, -0.461226f, -0.021542f, -0.462588f, 0.504873f, -0.383982f, -0.065371f, -0.474483f, -0.313274f };
static const float fire_detector_layer_1_biases[64] = { 0.255258f, -0.007855f, 0.079669f, -0.065263f, 0.070925f, -0.000015f, 0.268658f, 0.067873f, 0.100474f, 0.239273f, -0.055258f, 0.107318f, 0.054769f, 0.044004f, 0.044565f, 0.024607f, 0.090794f, 0.040511f, 0.036300f, -0.005474f, 0.043882f, -0.037386f, 0.192526f, 0.031251f, -0.026981f, 0.003419f, 0.036321f, 0.046827f, 0.038976f, -0.100504f, -0.000518f, 0.251706f, 0.264616f, 0.145494f, -0.003668f, 0.045276f, 0.038275f, 0.002046f, 0.111957f, 0.012338f, -0.028077f, -0.030971f, -0.019064f, 0.043388f, 0.023419f, 0.008636f, 0.028807f, -0.010363f, -0.033601f, 0.080450f, -0.108460f, 0.078957f, -0.062470f, 0.150984f, 0.047706f, 0.048817f, 0.076331f, 0.049624f, 0.158485f, -0.067062f, 0.143824f, 0.020100f, -0.018482f, 0.090766f };
static const float fire_detector_layer_1_weights[1024] = { -0.334173f, -0.264248f, 0.082098f, 0.155725f, 0.191579f, -0.015632f, -0.179317f, 0.206331f, 0.203464f, -0.132191f, -0.026195f, 0.117578f, 0.059916f, 0.274543f, 0.264768f, -0.330837f, -0.242305f, 0.282936f, -0.151291f, 0.209298f, -0.118448f, 0.114182f, -0.300467f, 0.289193f, 0.097759f, 0.300953f, -0.001305f, -0.056917f, 0.207904f, -0.318754f, -0.412918f, -0.328902f, -0.275592f, -0.315054f, 0.246286f, 0.016459f, 0.172168f, 0.073422f, 0.001630f, -0.043650f, -0.390831f, -0.203994f, 0.155922f, -0.107657f, 0.248344f, 0.046997f, 0.159310f, -0.162321f, -0.186418f, -0.041271f, 0.078591f, 0.159325f, 0.016314f, -0.079061f, -0.145470f, 0.139303f, 0.116229f, 0.009021f, -0.194602f, 0.004449f, -0.175156f, 0.219124f, 0.278137f, 0.316173f, 0.266096f, -0.146309f, -0.362002f, -0.134397f, 0.084841f, 0.328830f, 0.460675f, 0.243512f, 0.267183f, 0.331550f, -0.166551f, -0.371361f, -0.505516f, 0.198905f, 0.420658f, 0.139950f, -0.104759f, 0.459008f, -0.038758f, -0.292925f, -0.249009f, -0.002232f, 0.134279f, 0.080763f, 0.415177f, -0.495955f, 0.240468f, 0.392632f, 0.093458f, 0.139026f, 0.340727f, -0.072069f, 0.276112f, 0.273603f, 0.086852f, -0.411792f, 0.066558f, -0.314417f, 0.104359f, 0.171723f, 0.176332f, -0.198305f, -0.277264f, 0.330671f, -0.223740f, 0.096571f, 0.121452f, -0.003523f, -0.010511f, 0.078839f, 0.149763f, -0.147949f, -0.078338f, -0.217651f, -0.045332f, 0.392517f, 0.442687f, 0.558028f, -0.015103f, -0.092865f, 0.254242f, 0.229664f, -0.076622f, 0.104174f, -0.347105f, 0.048746f, 0.335801f, -0.164073f, -0.226879f, -0.130179f, 0.233411f, -0.173478f, -0.261318f, -0.188355f, -0.162109f, -0.396516f, 0.083023f, -0.149898f, 0.155468f, 0.111635f, -0.234746f, -0.006274f, 0.003467f, 0.337329f, -0.062429f, -0.404702f, -0.293704f, 0.028116f, -0.234444f, -0.033036f, 0.168459f, 0.015677f, -0.035767f, -0.476815f, -0.387783f, -0.103181f, -0.344373f, -0.144945f, 0.265785f, 0.272561f, -0.200081f, 0.133033f, -0.088447f, -0.169179f, 0.166593f, 0.382796f, 0.242728f, 0.009840f, 0.167182f, 0.090822f, -0.265132f, -0.189446f, -0.202330f, -0.111697f, -0.124745f, 0.158149f, -0.239339f, 0.207217f, 0.118531f, -0.307658f, -0.214825f, 0.078185f, -0.314511f, -0.321854f, 0.019881f, 0.017316f, -0.011905f, 0.219726f, 0.086567f, -0.196322f, 0.267759f, -0.234870f, -0.182380f, 0.084158f, 0.110690f, -0.194779f, -0.035785f, 0.199333f, -0.106207f, 0.070670f, 0.235020f, 0.217885f, -0.055119f, -0.212843f, -0.191073f, -0.203698f, 0.251871f, 0.205745f, -0.095336f, 0.191440f, -0.041903f, -0.202457f, -0.045358f, 0.240110f, -0.163703f, -0.094463f, 0.163090f, -0.101777f, -0.054634f, -0.242457f, -0.084508f, 0.117589f, -0.099394f, 0.383313f, -0.274410f, 0.288194f, -0.229711f, -0.348165f, 0.038001f, 0.303464f, 0.227105f, -0.047409f, 0.209331f, -0.132451f, 0.199444f, -0.001709f, -0.124980f, -0.039689f, 0.052249f, 0.169811f, 0.018955f, -0.129848f, 0.033777f, -0.108983f, 0.033917f, -0.236790f, 0.242539f, 0.016770f, 0.291136f, -0.133310f, -0.034898f, -0.110050f, -0.172872f, 0.217379f, -0.091500f, 0.195291f, 0.008451f, 0.096687f, -0.221798f, 0.149746f, -0.069340f, -0.206101f, 0.281856f, -0.038926f, 0.213300f, 0.146343f, 0.212364f, 0.276066f, 0.136234f, -0.114728f, 0.191789f, 0.169305f, 0.220458f, 0.101606f, -0.172686f, -0.091075f, 0.225575f, -0.347739f, 0.201058f, 0.090407f, 0.041654f, 0.095956f, 0.189957f, -0.162859f, -0.099317f, -0.135548f, 0.174768f, -0.159704f, 0.213065f, 0.237549f, 0.054763f, -0.245159f, 0.189081f, 0.154016f, 0.088664f, 0.080152f, -0.038752f, 0.293430f, 0.176636f, 0.183879f, 0.269470f, -0.193292f, 0.335616f, -0.156273f, -0.250288f, -0.231724f, 0.286532f, 0.101548f, -0.019028f, 0.120389f, -0.072456f, -0.093628f, -0.140275f, -0.015499f, 0.006877f, -0.154689f, -0.136397f, -0.055800f, -0.343613f, 0.310170f, -0.238928f, -0.153848f, -0.160392f, -0.085022f, 0.004455f, 0.370163f, -0.004524f, -0.448771f, -0.244268f, 0.325479f, 0.183499f, -0.183752f, 0.084671f, 0.239260f, -0.431473f, -0.499344f, -0.293568f, 0.028179f, 0.061006f, -0.047076f, 0.120599f, -0.606026f, 0.144205f, 0.361668f, 0.234913f, 0.109364f, 0.303665f, 0.144836f, 0.117743f, 0.050173f, -0.327431f, -0.495168f, 0.291157f, 0.078247f, 0.247099f, -0.097126f, 0.317351f, 0.133540f, 0.192766f, -0.161086f, -0.644109f, 0.288454f, 0.149652f, 0.081996f, 0.292704f, 0.280114f, -0.008140f, 0.017351f, 0.113853f, -0.180963f, -0.110566f, 0.244844f, -0.026722f, 0.123361f, -0.674268f, 0.007281f, 0.085965f, 0.295647f, -0.122785f, -0.232576f, -0.081433f, -0.074974f, 0.039225f, 0.213505f, -0.136745f, 0.070159f, -0.055526f, -0.208996f, -0.064657f, -0.143250f, -0.003537f, -0.096685f, -0.003998f, 0.072043f, -0.413598f, 0.164453f, -0.351810f, -0.559649f, -0.194044f, -0.173547f, 0.129774f, 0.207289f, -0.239543f, 0.354000f, -0.099062f, -0.156261f, 0.297855f, -0.122029f, -0.332361f, -0.325328f, -0.109877f, -0.059548f, -0.054477f, -0.130324f, -0.259455f, -0.101779f, -0.191326f, 0.234759f, -0.468830f, -0.297482f, -0.301333f, -0.247870f, -0.108804f, -0.232112f, -0.503712f, 0.228863f, -0.263287f, -0.016004f, -0.128487f, 0.204386f, -0.054399f, -0.150928f, -0.265549f, 0.178739f, -0.262332f, 0.173459f, -0.077232f, -0.272840f, -0.059753f, 0.162852f, 0.296038f, -0.590900f, 0.171310f, 0.018679f, 0.252939f, -0.005046f, 0.101952f, -0.211075f, -0.137179f, -0.096348f, -0.233232f, -0.135774f, 0.252716f, -0.173871f, 0.233723f, -0.273316f, -0.237600f, -0.363735f, -0.080159f, 0.074382f, -0.137484f, -0.225959f, 0.059694f, 0.302191f, -0.045754f, 0.225727f, 0.089455f, 0.083270f, 0.002839f, 0.196556f, 0.186770f, -0.345550f, -0.327854f, 0.465860f, 0.369963f, -0.082376f, 0.382261f, -0.193712f, 0.486425f, 0.215269f, 0.254491f, 0.089399f, 0.151125f, 0.226656f, 0.380377f, 0.165269f, -0.101688f, 0.175680f, 0.331831f, 0.195550f, 0.122059f, -0.007710f, 0.056521f, 0.327494f, 0.041261f, -0.126022f, 0.116879f, -0.164243f, 0.405930f, 0.009586f, -0.327526f, -0.163424f, 0.124277f, -0.027982f, 0.307335f, -0.324940f, -0.348864f, -0.028683f, -0.201073f, 0.125625f, -0.035729f, 0.536295f, -0.015908f, 0.218233f, -0.253262f, 0.194107f, -0.032275f, 0.046060f, -0.278137f, -0.895469f, 0.398049f, 0.003167f, -0.023444f, 0.078559f, 0.192879f, 0.157196f, 0.103365f, 0.004744f, -1.085040f, -0.187433f, 0.346893f, -0.244126f, 0.493781f, -0.126922f, 0.240065f, -0.342167f, 0.195197f, 0.264598f, 0.196279f, 0.006180f, -0.183989f, 0.092167f, -0.355944f, 0.094642f, -0.139497f, 0.260747f, 0.151972f, 0.096095f, 0.065179f, 0.209714f, 0.396733f, -0.176364f, 0.210647f, 0.054874f, 0.029402f, -0.035263f, 0.145504f, -0.011918f, -0.710253f, 0.267755f, 0.078047f, -0.104302f, 0.166523f, 0.371754f, 0.122709f, 0.391290f, -0.672135f, 0.052738f, -0.336403f, 0.442906f, 0.010967f, 0.460173f, 0.245330f, 0.147136f, 0.424613f, -0.066755f, 0.262501f, -0.308897f, 0.186930f, 0.156678f, 0.243382f, 0.140417f, 0.046136f, -0.087396f, 0.364828f, 0.070267f, -0.069324f, 0.189712f, 0.087011f, -0.119185f, -0.156129f, -0.015850f, -0.418857f, -0.449950f, -0.237649f, -0.131949f, -0.252316f, -0.318103f, -0.068989f, 0.238859f, -0.297636f, -0.400000f, -0.326724f, 0.142798f, 0.239364f, 0.081489f, -0.075039f, -0.201174f, 0.194834f, -0.003080f, 0.025407f, -0.327297f, 0.447934f, 0.045926f, 0.213759f, 0.090549f, 0.055572f, 0.119666f, -0.081931f, 0.001028f, 0.119290f, 0.058715f, -0.011630f, 0.187971f, -0.164847f, -0.229778f, 0.015445f, -0.208786f, 0.184530f, -0.199481f, 0.167426f, -0.496825f, 0.224281f, -0.309356f, -0.272918f, 0.123082f, 0.070591f, -0.177809f, -0.029577f, 0.149174f, 0.297662f, -0.053632f, -0.030764f, 0.240171f, 0.481437f, 0.234716f, -0.216770f, 0.424825f, -0.108832f, -0.065255f, 0.356119f, -0.133488f, -0.062278f, 0.321138f, -0.211866f, 0.152203f, 0.028475f, 0.090117f, 0.361293f, -0.064958f, 0.368514f, 0.094487f, -0.143836f, 0.438483f, 0.062648f, 0.277480f, 0.569235f, 0.271878f, -0.154880f, 0.233189f, 0.184661f, -0.234718f, 0.390088f, -0.289890f, 0.347592f, 0.385606f, 0.230204f, 0.121502f, -0.139627f, 0.016101f, -0.384983f, 0.200733f, 0.256833f, 0.069390f, 0.171102f, -0.181807f, 0.160586f, 0.282869f, 0.250163f, -0.150605f, -0.253128f, 0.263440f, 0.339371f, 0.029367f, -0.237865f, 0.247440f, 0.013990f, 0.292835f, 0.061783f, 0.050112f, -0.063664f, -0.047569f, -0.212567f, 0.184511f, 0.096715f, 0.215855f, -0.154387f, 0.148024f, 0.250907f, 0.205788f, 0.131162f, -0.397454f, 0.024980f, 0.326377f, -0.042956f, 0.010272f, -0.174638f, -0.539189f, -0.150624f, -0.440791f, -0.010437f, -0.048439f, -0.197655f, 0.338549f, 0.326898f, 0.002976f, -0.246993f, 0.064936f, 0.012998f, -0.120624f, 0.059534f, 0.054545f, -0.105300f, 0.340528f, -0.223944f, -0.077588f, -0.098158f, -0.025017f, -0.062678f, 0.191036f, 0.131747f, -0.353708f, 0.007290f, -0.178745f, -0.393599f, -0.254424f, 0.220955f, 0.002854f, -0.184048f, 0.228978f, -0.089958f, -0.163523f, -0.136947f, -0.121648f, -0.186203f, -0.031375f, 0.077629f, -0.669098f, 0.201710f, -0.019433f, 0.324562f, -0.602682f, 0.217909f, -0.238395f, 0.163234f, 0.171690f, 0.123848f, -0.104583f, -0.279930f, 0.267101f, 0.128016f, 0.094059f, -0.011125f, 0.008601f, 0.013450f, 0.216893f, -0.075397f, 0.234340f, 0.083230f, -0.206491f, 0.332223f, 0.132685f, -0.066986f, -0.147039f, -0.304991f, 0.178312f, 0.207900f, 0.243549f, 0.006057f, 0.203178f, -0.251228f, 0.279342f, -0.138215f, 0.329056f, 0.077702f, 0.084472f, 0.310213f, 0.010231f, -0.051364f, -0.267413f, 0.223654f, -0.246540f, 0.163615f, 0.143382f, -0.427552f, -0.251942f, 0.153463f, -0.257451f, -0.095927f, -0.143162f, 0.221449f, -0.012188f, 0.045064f, 0.139506f, -0.085338f, 0.111480f, -0.040299f, 0.085172f, -0.180671f, 0.299154f, 0.085800f, 0.288693f, 0.234873f, -0.169246f, 0.166813f, 0.202038f, -0.157658f, -0.006791f, -0.258904f, 0.073403f, -0.140106f, 0.152077f, 0.136105f, 0.072423f, -0.080859f, 0.237976f, 0.128270f, -0.162540f, 0.253942f, -0.491360f, -0.013390f, 0.128457f, -0.289863f, 0.110028f, 0.190893f, -0.356743f, -0.117923f, 0.016769f, -0.124341f, 0.034182f, -0.620631f, 0.112138f, 0.076376f, -0.013408f, -0.359410f, -0.327263f, -0.293191f, 0.070055f, 0.265959f, -0.277793f, -0.219625f, -0.168121f, 0.276173f, -0.092358f, 0.045651f, 0.333123f, -0.284498f, 0.018431f, 0.140173f, 0.092652f, 0.187089f, 0.301337f, -0.178098f, -0.123492f, 0.252254f, 0.054868f, 0.126882f, 0.005019f, 0.285455f, -0.136332f, 0.309461f, 0.110302f, -0.277040f, -0.307380f, -0.036782f, -0.354737f, -0.375184f, 0.156774f, -0.064540f, -0.400076f, 0.304356f, -0.069720f, -0.001785f, -0.142927f, 0.174940f, 0.160964f, -0.344742f, 0.127716f, -0.238609f, 0.071102f, -0.192048f, 0.009396f, 0.306475f, -0.296010f, 0.173808f, -0.098090f, -0.399235f, -0.379523f, 0.058142f, -0.111488f, 0.358711f, 0.291830f, 0.152472f, -0.296950f, 0.173174f, 0.120365f, 0.033972f, 0.200953f, -0.052284f, -0.192085f, -0.156634f, 0.045405f, -0.137557f, -0.051994f, -0.103946f, -0.335132f, -0.019442f, 0.387858f, 0.060005f, -0.022462f, -0.066567f, 0.154259f, -0.306996f, 0.211743f, 0.219546f, -0.180600f, 0.112787f, -0.262214f, -0.060151f, -0.264444f, -0.514364f, 0.229173f, -0.390993f, 0.413398f, 0.062941f, 0.385722f, 0.256269f, 0.092271f, -0.032113f, -0.198759f, -0.264227f, 0.307913f, -0.167529f, -0.038506f, 0.265800f, 0.147281f, 0.454070f, 0.026503f, 0.435767f, 0.159538f, -0.144183f, -0.236289f, -0.182008f, -0.244315f, -0.383576f, -0.012159f, 0.365756f, -0.298022f, 0.343389f, -0.252441f, -0.518863f, -0.265822f, 0.206308f, -0.298339f, 0.199519f, 0.264526f, -0.222329f, -0.339738f, 0.553254f, -0.324547f, -0.308399f, 0.531979f, -0.384050f, -0.312740f, -0.169959f, -0.013077f, -0.079736f, 0.470937f, 0.223269f, 0.115963f, 0.329692f, 0.324903f, -0.410907f, 0.473891f, -0.409180f, -0.077149f, -0.493753f, 0.235470f, 0.039093f, -0.094373f, -0.241398f, -0.029113f, -0.390820f, -0.021967f, -0.372824f, 0.066729f, 0.037844f, 0.131201f, 0.112518f, -0.212729f, 0.300478f, -0.049263f, -0.366547f, -0.136224f, 0.247912f, 0.243136f, -0.031683f, -0.493947f, -0.175471f, 0.684319f };
static const float fire_detector_layer_2_biases[128] = { -0.023992f, 0.086929f, 0.094237f, 0.041511f, 0.090810f, 0.096946f, -0.008705f, 0.032198f, 0.062156f, 0.050486f, 0.071908f, 0.015878f, -0.010417f, -0.014824f, 0.030797f, 0.054501f, 0.033692f, 0.009934f, 0.006599f, 0.067970f, 0.067357f, 0.100666f, -0.016748f, -0.001959f, -0.000745f, 0.048377f, 0.093963f, 0.062635f, -0.003067f, -0.000608f, 0.045842f, -0.003409f, 0.021436f, 0.060393f, 0.033081f, 0.055617f, 0.025796f, -0.018710f, 0.119949f, 0.031879f, 0.023681f, -0.005450f, -0.012776f, -0.028481f, 0.010535f, 0.064218f, 0.055771f, -0.022562f, 0.053485f, -0.001788f, 0.026761f, 0.061922f, 0.073155f, 0.041337f, 0.055372f, 0.053381f, 0.009099f, 0.012255f, 0.051234f, -0.007594f, 0.066651f, 0.049496f, 0.026891f, 0.094434f, 0.016131f, -0.006543f, 0.051438f, 0.072752f, 0.057195f, 0.027413f, 0.014650f, 0.057585f, 0.055694f, 0.070634f, 0.040538f, 0.044999f, 0.048913f, 0.076946f, -0.030520f, 0.086230f, 0.028952f, -0.028311f, 0.044435f, -0.013316f, 0.023995f, 0.063425f, -0.138153f, 0.015847f, 0.002178f, 0.072438f, 0.065609f, 0.060377f, -0.007038f, -0.014898f, -0.018093f, 0.104441f, -0.071255f, 0.108566f, 0.067313f, 0.033210f, 0.080393f, 0.058865f, 0.074816f, 0.000814f, 0.043312f, -0.009469f, 0.046847f, -0.025743f, 0.033159f, 0.041674f, 0.040576f, 0.022041f, 0.040999f, 0.014382f, 0.022686f, 0.031961f, -0.001093f, 0.040497f, 0.040648f, 0.088745f, 0.021031f, -0.007804f, 0.061585f, -0.013754f, 0.031420f, 0.049954f, 0.017718f, 0.075307f };
static const float fire_detector_layer_2_weights[8192] = { -0.616958f, 0.700368f, -0.254420f, 0.650722f, -0.310902f, 0.482162f, -0.355242f, 0.553435f, 0.555908f, 0.623251f, 0.640424f, -0.153755f, -0.609589f, -0.567890f, 0.682434f, -0.455387f, 0.103033f, -0.383316f, -0.539313f, 0.611641f, 0.503930f, 0.483985f, -0.392730f, -0.441988f, -0.438035f, 0.482597f, 0.481165f, 0.527841f, -0.142084f, -0.335515f, -0.644943f, -0.041826f, -0.650161f, 0.564811f, 0.680728f, 0.581613f, -0.599458f, -0.641144f, 0.720374f, -0.428772f, -0.434391f, 0.101127f, -0.508286f, -0.373022f, -0.560950f, 0.611751f, 0.128273f, -0.411428f, 0.502796f, -0.365738f, 0.603776f, 0.633159f, 0.514908f, 0.508525f, -0.365189f, 0.411722f, -0.578775f, -0.355209f, 0.089100f, -0.395756f, -0.409638f, 0.604025f, 0.514263f, -0.042656f, -0.361811f, 0.662301f, 0.598238f, -0.625645f, 0.656666f, -0.640417f, -0.345719f, -0.520966f, 0.616002f, 0.425972f, 0.557813f, 0.474027f, 0.531105f, -0.322742f, 0.609912f, -0.395114f, -0.668389f, -0.325040f, 0.589173f, -0.356399f, -0.659445f, 0.362654f, 0.141113f, 0.457300f, -0.549404f, 0.632946f, -0.414126f, 0.643725f, -0.361319f, -0.181543f, -0.002784f, -0.018359f, -0.004515f, -0.419028f, 0.401315f, -0.474037f, -0.422305f, -0.506825f, 0.549668f, -0.470400f, 0.575225f, -0.323679f, 0.657565f, -0.546376f, 0.507744f, 0.590736f, 0.350543f, -0.429942f, 0.349339f, -0.277999f, 0.476702f, 0.680874f, -0.407515f, -0.502262f, -0.337481f, 0.416128f, -0.409321f, -0.432186f, -0.613253f, -0.559980f, -0.299995f, 0.504574f, -0.551276f, 0.446467f, 0.661457f, -0.468329f, 0.732158f, -0.633192f, 0.486778f, -0.519976f, 0.446207f, -0.622707f, -0.660547f, -0.566017f, -0.512418f, 0.096617f, 0.557895f, 0.397896f, -0.531464f, 0.439025f, 0.119413f, 0.556199f, 0.711888f, -0.578942f, -0.483848f, -0.617441f, 0.623120f, 0.729585f, 0.424579f, -0.470653f, -0.317353f, -0.546593f, -0.052344f, 0.457502f, 0.466726f, 0.025470f, 0.609555f, -0.574332f, -0.313514f, -0.492382f, 0.501954f, 0.528767f, -0.630222f, 0.685395f, 0.495734f, 0.113239f, 0.684861f, 0.401157f, 0.555822f, -0.706038f, 0.168044f, 0.605253f, -0.723371f, 0.563048f, -0.515241f, -0.601481f, -0.702422f, -0.500910f, 0.718940f, -0.507897f, 0.623102f, 0.403615f, -0.295229f, 0.533356f, 0.595009f, -0.677675f, -0.580506f, -0.781877f, 0.605875f, -0.323883f, -0.635708f, 0.619711f, -0.603017f, 0.508489f, 0.534613f, 0.494407f, -0.563087f, -0.629290f, -0.465786f, -0.547433f, -0.552597f, 0.381690f, 0.098467f, 0.619270f, 0.685886f, 0.683485f, -0.613729f, 0.516874f, 0.592411f, -0.464324f, 0.091815f, -0.407067f, 0.614802f, -0.477231f, 0.653855f, -0.784414f, 0.461957f, -0.066981f, 0.147949f, -0.839982f, 0.010822f, 0.344175f, -0.630805f, 0.540977f, 0.368420f, 0.456619f, -0.532285f, 0.555164f, -0.663794f, 0.686502f, -0.722162f, 0.688808f, -0.329383f, -0.635441f, -0.531965f, 0.344122f, -0.512094f, 0.537259f, -0.549125f, -0.596579f, 0.598176f, 0.413115f, 0.503262f, -0.625481f, 0.486970f, 0.478721f, 0.434553f, 0.645024f, 0.556027f, -0.669080f, 0.478656f, -0.455359f, -0.009293f, -0.094256f, 0.077495f, -0.189448f, 0.137463f, -0.090085f, -0.112564f, 0.031520f, -0.157687f, 0.039746f, 0.006466f, -0.068402f, 0.123768f, 0.064555f, -0.055638f, 0.167964f, 0.127140f, 0.036415f, -0.096670f, 0.035176f, -0.076741f, -0.086164f, 0.017856f, 0.082058f, 0.293239f, -0.085681f, -0.154766f, -0.171744f, 0.143337f, 0.007046f, 0.327731f, -0.138552f, 0.131356f, 0.077670f, -0.004495f, -0.152616f, 0.205355f, 0.158965f, 0.009603f, 0.016645f, 0.248270f, 0.170337f, 0.200779f, -0.084028f, 0.329962f, -0.096685f, 0.142078f, 0.219597f, 0.027482f, 0.212977f, 0.021219f, -0.060692f, -0.067312f, -0.014700f, -0.079074f, -0.117021f, 0.177600f, -0.147603f, 0.056653f, 0.196918f, 0.275858f, 0.011459f, -0.253528f, 0.140545f, 0.010326f, -0.225069f, -0.122039f, 0.246582f, -0.224908f, 0.209704f, 0.071912f, 0.145567f, -0.053720f, 0.024590f, -0.143873f, -0.205555f, -0.079460f, 0.346930f, -0.059090f, 0.042791f, 0.289032f, 0.067374f, -0.043235f, 0.102084f, 0.135625f, -0.034310f, -0.323570f, -0.157530f, 0.088654f, -0.056166f, -0.001323f, -0.165683f, 0.007462f, -0.096905f, 0.040979f, -0.019636f, -0.535515f, 0.108062f, 0.075886f, 0.008968f, 0.067905f, 0.030401f, 0.059408f, 0.195621f, 0.055577f, 0.168643f, -0.010570f, 0.247161f, -0.150300f, 0.114394f, -0.048292f, 0.116856f, -0.026109f, 0.187888f, -0.056771f, -0.087339f, 0.012363f, 0.230654f, 0.037790f, -0.008724f, -0.078386f, 0.106023f, 0.120992f, 0.274066f, 0.283326f, -0.039680f, 0.065111f, 0.111448f, -0.074961f, -0.027835f, 0.026111f, -0.170402f, 0.122034f, -0.040773f, 0.065550f, 0.023596f, 0.076467f, 0.013066f, -0.146568f, -0.051036f, 0.114063f, -0.010033f, -0.035367f, -0.158946f, -0.060949f, -0.102920f, -0.176126f, -0.105369f, -0.071762f, -0.188074f, -0.167503f, 0.057287f, -0.154912f, 0.005135f, -0.007511f, 0.014445f, 0.127980f, 0.065432f, -0.155869f, 0.103014f, -0.059300f, -0.130780f, 0.137945f, -0.123690f, -0.082811f, 0.079373f, 0.040935f, -0.169411f, 0.077820f, -0.117385f, 0.120327f, -0.172890f, -0.155995f, -0.139079f, 0.019156f, 0.018254f, -0.171398f, -0.019443f, -0.026306f, 0.157011f, 0.123410f, 0.118650f, -0.074409f, -0.168860f, -0.138908f, -0.053941f, -0.030871f, -0.170866f, -0.101642f, 0.107397f, 0.130224f, -0.134699f, 0.070545f, 0.120365f, -0.029973f, -0.064787f, -0.161781f, -0.148523f, -0.178344f, -0.085251f, 0.098212f, -0.160795f, -0.029216f, -0.122719f, 0.053610f, -0.119511f, 0.180347f, -0.143871f, 0.162412f, 0.119122f, 0.158120f, -0.002148f, -0.036369f, -0.043032f, -0.025671f, -0.148794f, -0.023039f, -0.190207f, -0.012661f, -0.173114f, 0.104999f, 0.039241f, -0.008726f, 0.114211f, 0.163613f, 0.156640f, 0.155717f, 0.118870f, -0.003319f, 0.116201f, 0.067358f, -0.191006f, -0.104763f, 0.158892f, -0.084530f, -0.153721f, -0.089698f, -0.029158f, 0.092380f, -0.038876f, -0.070528f, 0.013588f, 0.119431f, 0.109781f, -0.021526f, 0.073362f, 0.044634f, -0.179263f, -0.112444f, 0.064798f, -0.199498f, -0.178844f, -0.145724f, 0.107521f, 0.015300f, 0.023728f, -0.246780f, 0.155869f, -0.200302f, 0.133893f, -0.074347f, 0.356841f, -0.143591f, 0.324193f, 0.346183f, 0.366981f, 0.112011f, -0.151371f, -0.196098f, -0.249488f, 0.062615f, -0.074104f, -0.048241f, -0.296529f, 0.025881f, 0.142520f, 0.197935f, 0.349748f, -0.213787f, -0.086262f, -0.279228f, 0.157787f, 0.297772f, 0.219200f, -0.173527f, 0.158198f, -0.201602f, -0.020486f, -0.039291f, 0.091748f, 0.290764f, 0.225178f, -0.104499f, -0.024284f, 0.353077f, -0.019413f, -0.280910f, 0.058380f, -0.278429f, 0.073251f, -0.168860f, 0.271681f, -0.151979f, -0.245807f, 0.234625f, -0.313920f, 0.330476f, 0.275787f, 0.084740f, 0.212577f, 0.213082f, 0.182756f, -0.045594f, 0.104737f, 0.053217f, -0.199557f, -0.139733f, 0.348207f, 0.299158f, 0.345077f, -0.079318f, 0.019705f, 0.097778f, -0.186578f, 0.169003f, 0.024387f, -0.100550f, -0.080096f, 0.047189f, 0.287859f, 0.214706f, 0.036847f, 0.183852f, -0.234561f, -0.019088f, -0.070053f, -0.283061f, -0.177602f, 0.214653f, -0.272805f, -0.150449f, 0.229831f, 0.171039f, 0.252617f, -0.131057f, 0.292894f, -0.153287f, 0.316923f, -0.098470f, -0.160444f, 0.139105f, -0.336013f, 0.104453f, -0.041263f, 0.144997f, 0.040858f, -0.175661f, -0.251617f, 0.258027f, -0.097813f, 0.262911f, -0.316923f, 0.073612f, -0.170489f, 0.210305f, 0.293612f, 0.234539f, -0.222569f, 0.156542f, -0.010476f, 0.038019f, 0.236403f, -0.162064f, -0.133504f, 0.017351f, 0.145549f, 0.095533f, -0.273510f, 0.067711f, -0.051135f, -0.161162f, 0.312880f, -0.311678f, 0.110976f, -0.082020f, 0.019211f, 0.062308f, -0.099022f, 0.021367f, -0.142170f, -0.028365f, 0.073832f, 0.002926f, 0.018229f, -0.133939f, -0.018832f, 0.065110f, -0.064169f, -0.070249f, -0.087070f, -0.092455f, 0.070314f, -0.112460f, -0.189425f, -0.091478f, 0.105326f, 0.018591f, 0.138529f, -0.126848f, 0.143957f, -0.083084f, 0.019857f, 0.103748f, -0.252264f, -0.126861f, -0.114844f, -0.053698f, 0.098558f, 0.145658f, 0.067059f, -0.040796f, -0.044429f, -0.087930f, 0.089739f, 0.124686f, -0.168720f, -0.123254f, -0.137651f, 0.019942f, 0.060166f, 0.023991f, -0.059542f, 0.024672f, -0.091487f, 0.110828f, -0.135000f, 0.212489f, 0.031392f, -0.058531f, -0.083216f, -0.011127f, 0.203650f, 0.184140f, -0.093545f, -0.117375f, 0.030789f, -0.135130f, -0.050578f, 0.014635f, -0.073810f, 0.055603f, -0.113358f, -0.016013f, -0.083519f, -0.048341f, 0.032332f, 0.016550f, -0.107257f, -0.010962f, 0.033983f, -0.086573f, -0.083232f, 0.085751f, -0.030308f, 0.167314f, -0.047143f, 0.042940f, 0.032137f, 0.061076f, -0.133265f, 0.219485f, -0.014417f, -0.130298f, 0.089253f, -0.109606f, 0.120403f, -0.069584f, -0.127887f, -0.059530f, 0.098424f, 0.104780f, 0.036428f, 0.115140f, 0.062801f, 0.098710f, 0.127578f, -0.040217f, 0.138452f, 0.083188f, -0.088724f, 0.047167f, -0.023808f, -0.061152f, 0.148698f, 0.184157f, 0.043228f, 0.090116f, 0.014954f, 0.128406f, 0.060091f, -0.137463f, -0.178629f, 0.169817f, 0.162151f, -0.047050f, 0.069899f, -0.113740f, 0.059628f, -0.027252f, 0.152301f, -0.009620f, -0.080699f, -0.740922f, 0.760967f, -0.740466f, 0.811681f, -0.763187f, 0.848790f, -0.501674f, 0.868403f, 0.775511f, 0.564287f, 0.621528f, 0.094860f, -0.613140f, -0.723206f, 0.739802f, -0.582923f, -0.008975f, -0.693627f, -0.438785f, 0.781778f, 0.602946f, 0.929877f, -0.833895f, -0.646637f, -0.549632f, 0.882250f, 0.862952f, 0.684186f, 0.041363f, -0.801694f, -0.527104f, -0.180384f, -0.750870f, 0.740561f, 0.772868f, 0.682281f, -0.845026f, -0.654241f, 0.755597f, -0.820933f, -0.758115f, -0.106863f, -0.592319f, -0.008867f, -0.744081f, 0.587647f, 0.318627f, -0.738823f, 0.887914f, -0.843945f, 0.716795f, 0.594799f, 0.946494f, 0.578838f, -0.499594f, 0.859266f, -0.670587f, -0.554487f, 0.075881f, -0.694719f, -0.700177f, 0.777098f, 0.657648f, -0.003782f, -0.561470f, 0.630794f, 0.735364f, -0.786957f, 0.722428f, -0.680983f, -0.549591f, -0.833529f, 0.823586f, 0.898957f, 0.573773f, 0.804778f, 0.781813f, -0.757979f, -0.185850f, -0.786602f, -0.772011f, -0.548601f, 0.598697f, -0.785716f, -0.722210f, 0.561588f, 0.051216f, 0.614429f, -0.734892f, 0.711901f, -0.784280f, 0.832125f, -0.725775f, 0.150604f, 0.008289f, 0.034370f, 0.078682f, -0.474986f, 0.784388f, -0.643416f, -0.592512f, -0.734520f, 0.937988f, -0.745008f, 0.663839f, -0.440178f, 0.707728f, -0.738655f, 0.784751f, 0.677302f, 0.798476f, -0.669525f, 0.656375f, -0.703011f, 0.626466f, 0.645422f, -0.505796f, -0.596216f, -0.642917f, 0.679054f, -0.585089f, -0.622159f, -0.656158f, -0.538774f, -0.649877f, 0.716185f, -0.620530f, 0.907557f, -0.041901f, 0.132512f, 0.042071f, -0.038342f, -0.048962f, -0.025445f, 0.064760f, 0.003915f, 0.172216f, 0.109307f, 0.138623f, 0.126744f, 0.185599f, -0.033732f, 0.038554f, 0.019511f, -0.012998f, 0.151877f, 0.066921f, 0.179126f, 0.213348f, 0.227790f, 0.020942f, -0.016383f, 0.035337f, 0.052061f, 0.037462f, -0.011710f, 0.084426f, 0.112850f, 0.077051f, -0.163517f, -0.049816f, -0.053994f, 0.127773f, 0.084165f, 0.163200f, 0.008675f, 0.194219f, -0.091013f, -0.153186f, -0.084475f, 0.054685f, 0.074641f, 0.146059f, 0.007930f, -0.045943f, -0.029775f, 0.148642f, 0.022783f, 0.179222f, 0.135581f, 0.089947f, -0.068389f, 0.189248f, 0.096657f, 0.131521f, 0.184997f, -0.066407f, 0.060551f, -0.151028f, 0.113614f, 0.121059f, -0.435925f, -0.141970f, -0.087643f, -0.094069f, 0.196920f, 0.198942f, 0.057099f, 0.135582f, -0.022542f, 0.134558f, -0.075752f, 0.116039f, 0.128955f, -0.056644f, 0.019587f, -0.017028f, -0.117239f, 0.141697f, -0.106366f, 0.176751f, -0.023279f, 0.103520f, -0.106897f, -0.059609f, 0.205314f, 0.026573f, 0.213460f, -0.000407f, 0.040360f, 0.106005f, -0.024172f, -0.053411f, -0.923376f, 0.095012f, -0.058159f, 0.078570f, -0.019580f, 0.134496f, -0.035931f, -0.091542f, 0.008671f, 0.014541f, -0.090406f, 0.109759f, 0.017449f, 0.212365f, 0.015395f, 0.149941f, -0.172148f, -0.060459f, -0.137540f, 0.091339f, 0.092713f, 0.138239f, -0.104822f, -0.026280f, 0.029907f, 0.055819f, 0.212227f, -0.087220f, -0.051243f, -0.121747f, -0.049996f, 0.074757f, -0.032647f, -0.132745f, 0.288081f, 0.057670f, 0.260625f, -0.082351f, 0.065062f, 0.131776f, 0.083091f, 0.061507f, 0.067691f, 0.192689f, 0.131329f, 0.129909f, -0.016780f, 0.191219f, -0.099904f, -0.137346f, -0.031143f, -0.054762f, -0.017388f, 0.035822f, 0.232658f, -0.125758f, -0.122169f, 0.053789f, 0.125457f, 0.172397f, 0.207156f, -0.124124f, 0.122130f, -0.026923f, -0.152721f, -0.053977f, 0.084133f, 0.111405f, 0.236126f, -0.066469f, 0.133432f, 0.200009f, 0.052223f, 0.090582f, -0.083608f, 0.072929f, 0.123597f, 0.186630f, 0.022501f, -0.015103f, 0.139601f, -0.050559f, 0.071796f, 0.262592f, 0.220482f, 0.208295f, -0.050022f, 0.183314f, 0.205247f, -0.061086f, 0.188444f, -0.040116f, -0.172137f, -0.030746f, -0.067829f, 0.026509f, -0.083195f, 0.022461f, -0.136947f, -0.009048f, 0.062605f, 0.048956f, -0.071815f, -0.014261f, -0.061438f, 0.231603f, 0.258194f, -0.016421f, 0.101454f, -0.044099f, 0.024088f, -0.226504f, 0.109062f, -0.172125f, 0.107434f, 0.255310f, 0.070883f, 0.188871f, 0.146410f, -0.113096f, -0.048384f, 0.114152f, 0.138743f, -0.038050f, 0.144665f, 0.041093f, 0.015711f, 0.096983f, -0.526794f, 0.075838f, -0.127840f, 0.021634f, 0.030902f, 0.110014f, -0.144181f, 0.197157f, 0.041301f, 0.214478f, 0.140746f, 0.052439f, 0.053895f, 0.088867f, 0.037857f, 0.229691f, 0.039262f, 0.046111f, 0.090727f, 0.146690f, 0.252216f, 0.101636f, -0.126380f, 0.007250f, 0.170185f, -0.041358f, -0.129388f, 0.211344f, -0.094872f, 0.054040f, -0.079284f, 0.015210f, 0.243883f, -0.195366f, 0.536481f, -0.503710f, 0.342479f, -0.302062f, 0.404379f, -0.455034f, 0.333053f, 0.270159f, 0.215488f, 0.305359f, -0.125287f, -0.159333f, -0.293864f, 0.597675f, -0.416389f, -0.059432f, -0.429089f, -0.164105f, 0.335150f, 0.536581f, 0.427375f, -0.252915f, -0.250241f, -0.574865f, 0.290691f, 0.449165f, 0.371899f, 0.042740f, -0.588477f, -0.283847f, -0.028732f, -0.502822f, 0.416542f, 0.202036f, 0.332342f, -0.254834f, -0.369082f, 0.657283f, -0.320567f, -0.294923f, 0.044841f, -0.483158f, -0.185452f, -0.220431f, 0.495005f, -0.043865f, -0.239433f, 0.407950f, -0.336423f, 0.292829f, 0.498925f, 0.530872f, 0.306612f, -0.159095f, 0.318524f, -0.456121f, -0.406329f, 0.198289f, -0.448033f, -0.577833f, 0.279343f, 0.469327f, 0.155157f, -0.193561f, 0.399149f, 0.509242f, -0.192043f, 0.492669f, -0.307351f, -0.455157f, -0.554021f, 0.320016f, 0.507335f, 0.360040f, 0.370814f, 0.304759f, -0.589203f, 0.120865f, -0.486641f, -0.255845f, -0.157917f, 0.567666f, -0.232487f, -0.164548f, 0.501710f, 0.442624f, 0.413604f, -0.420350f, 0.382980f, -0.283192f, 0.320477f, -0.172412f, -0.068645f, -0.018794f, -0.034274f, 0.040843f, -0.455922f, 0.343563f, -0.245098f, -0.482590f, -0.460603f, 0.423944f, -0.248485f, 0.238597f, -0.287033f, 0.285950f, -0.233333f, 0.441478f, 0.367006f, 0.237429f, -0.253924f, 0.318079f, -0.237067f, 0.449225f, 0.442421f, -0.423515f, -0.482398f, -0.461221f, 0.350649f, -0.364865f, -0.426533f, -0.319084f, -0.360753f, -0.426204f, 0.204544f, -0.246552f, 0.623223f, 0.093057f, -0.199086f, -0.101561f, -0.101029f, 0.043922f, 0.116564f, 0.163818f, 0.056421f, -0.157685f, -0.055765f, -0.089630f, -0.159384f, 0.047338f, -0.009467f, 0.090419f, 0.122590f, -0.096885f, -0.059482f, 0.181286f, 0.021654f, -0.195279f, -0.003679f, 0.152181f, -0.143611f, -0.104984f, -0.039667f, -0.069121f, -0.048055f, -0.059283f, 0.098043f, 0.025541f, -0.122207f, -0.107900f, -0.127063f, -0.075938f, -0.159920f, 0.098757f, 0.021762f, -0.221375f, -0.022773f, 0.032528f, -0.043398f, -0.129791f, -0.001713f, -0.173056f, -0.014097f, -0.012008f, -0.002424f, -0.145880f, 0.153112f, 0.022941f, 0.056051f, -0.029020f, -0.148273f, 0.032875f, -0.169390f, 0.165005f, 0.030084f, 0.132807f, -0.142957f, 0.052168f, -0.155044f, -0.105836f, 0.065695f, 0.044174f, 0.116125f, 0.129697f, 0.072550f, 0.107118f, -0.010829f, -0.065467f, 0.142668f, -0.030385f, 0.030381f, 0.072714f, -0.168720f, -0.169782f, -0.018629f, -0.123622f, 0.066877f, 0.121534f, 0.046435f, 0.131007f, 0.084893f, 0.136564f, -0.038099f, 0.268620f, 0.082048f, 0.078415f, -0.121890f, 0.003418f, -0.195948f, 0.001886f, 0.017197f, -0.141002f, -0.022602f, 0.178860f, -0.017257f, 0.077287f, -0.089667f, -0.066255f, 0.049317f, -0.224075f, 0.023125f, -0.136112f, 0.072214f, -0.160388f, -0.038705f, 0.114993f, 0.033312f, 0.074096f, 0.070208f, 0.109856f, -0.123741f, -0.203887f, 0.108874f, -0.053696f, 0.065126f, -0.063131f, -0.107241f, 0.003958f, -0.071635f, 0.046369f, -0.096915f, 0.152375f, -0.006347f, 0.144430f, -0.016394f, -0.331926f, 0.430568f, -0.148349f, 0.141616f, -0.118760f, 0.165828f, -0.148702f, 0.189564f, 0.243953f, 0.413767f, 0.208582f, 0.170506f, -0.116600f, -0.162427f, 0.364075f, -0.361275f, 0.076643f, -0.183205f, -0.143243f, 0.342228f, 0.439472f, 0.363856f, -0.135058f, -0.342474f, -0.314215f, 0.243896f, 0.406550f, 0.206038f, 0.145963f, -0.425810f, -0.113632f, 0.122334f, -0.364305f, 0.335327f, 0.147708f, 0.334054f, -0.102402f, -0.395620f, 0.429537f, -0.208819f, -0.151617f, -0.176209f, -0.392915f, -0.324208f, -0.191394f, 0.255076f, 0.061815f, -0.455882f, 0.260473f, -0.407473f, 0.199838f, 0.408799f, 0.199024f, 0.195998f, -0.002025f, 0.380795f, -0.110130f, -0.012039f, -0.006054f, -0.243360f, -0.149852f, 0.108089f, 0.124611f, 0.100602f, -0.152442f, 0.177341f, 0.194005f, -0.344079f, 0.314315f, -0.171466f, -0.128906f, -0.378977f, 0.329479f, 0.317654f, 0.113513f, 0.128774f, 0.145126f, -0.220158f, -0.258873f, -0.226049f, -0.163750f, -0.066622f, 0.342721f, -0.363865f, -0.341094f, 0.224528f, 0.059601f, 0.243559f, -0.254361f, 0.221136f, -0.356328f, 0.394123f, -0.353281f, 0.104197f, -0.034705f, 0.077537f, -0.021682f, 0.014639f, 0.359236f, -0.342169f, -0.126215f, -0.079682f, 0.335040f, -0.377341f, 0.422132f, -0.299797f, 0.123532f, -0.229969f, 0.329882f, 0.297014f, 0.408668f, -0.215793f, 0.089603f, -0.208377f, 0.363919f, 0.132338f, -0.268571f, -0.157917f, -0.153567f, 0.229022f, -0.215132f, -0.045150f, -0.246496f, -0.299627f, -0.114374f, 0.132757f, -0.148992f, 0.407859f, 0.134140f, 0.015429f, -0.069914f, 0.004584f, 0.125651f, -0.169842f, 0.052907f, -0.142812f, -0.009560f, -0.021572f, 0.052095f, 0.039205f, -0.012171f, 0.103861f, -0.155668f, 0.022627f, -0.157725f, -0.009641f, 0.197323f, -0.047339f, 0.115803f, 0.019018f, -0.074379f, -0.097428f, 0.041218f, -0.133194f, 0.022213f, -0.177737f, -0.101279f, 0.048766f, 0.195193f, -0.067309f, 0.093620f, 0.105053f, -0.167115f, -0.085014f, -0.084975f, 0.108810f, 0.047619f, 0.050047f, 0.139497f, -0.102655f, 0.150339f, -0.091296f, 0.076541f, 0.030933f, -0.150296f, -0.001635f, -0.004500f, 0.143915f, 0.002694f, -0.130902f, -0.171080f, 0.005486f, -0.088723f, -0.152769f, 0.175265f, -0.100795f, 0.107112f, 0.011398f, 0.212811f, -0.118942f, 0.038940f, -0.079620f, -0.024369f, -0.043199f, -0.132502f, 0.272203f, 0.004460f, 0.238479f, 0.209927f, 0.256686f, -0.008335f, 0.024988f, -0.202809f, 0.037497f, -0.051995f, 0.097306f, -0.296878f, 0.154773f, -0.026520f, 0.037693f, -0.132171f, 0.145717f, 0.043031f, 0.112763f, -0.173142f, 0.026204f, 0.101721f, -0.147554f, 0.171581f, -0.078382f, 0.128800f, -0.173492f, -0.087806f, 0.044837f, 0.027764f, 0.097443f, 0.129407f, 0.001909f, 0.056918f, 0.226414f, -0.081699f, 0.164819f, -0.026000f, -0.103179f, 0.034655f, 0.222599f, -0.188038f, -0.041567f, 0.011289f, 0.183939f, 0.118527f, 0.039404f, 0.097054f, -0.187534f, 0.021021f, 0.022505f, -0.062498f, -0.195354f, 0.109668f, -0.026019f, 0.091657f, 0.115123f, 0.099709f, -0.137184f, 0.145798f, 0.110407f, -0.124079f, -0.045575f, -0.089285f, 0.138517f, 0.016827f, 0.229936f, -0.110878f, 0.114161f, 0.230318f, 0.005691f, 0.013895f, -0.070051f, -0.201037f, -0.094844f, -0.039151f, -0.143939f, -0.126346f, 0.172660f, -0.159996f, 0.143185f, -0.104113f, 0.049318f, 0.003661f, 0.008100f, -0.057045f, 0.093755f, 0.039208f, 0.093883f, -0.158858f, -0.008714f, 0.133692f, -0.095043f, -0.113385f, -0.041753f, 0.110138f, 0.073199f, -0.077879f, 0.000264f, -0.074678f, -0.001241f, -0.024145f, 0.085347f, 0.126866f, -0.208653f, 0.140641f, -0.106511f, 0.022084f, 0.002569f, -0.068732f, 0.171581f, 0.109265f, 0.151241f, 0.133562f, 0.130021f, -0.141069f, 0.064833f, -0.019048f, 0.028552f, -0.022518f, -0.039495f, 0.120986f, 0.149509f, 0.140915f, 0.009581f, 0.044341f, 0.200667f, 0.183015f, 0.143333f, 0.200196f, -0.023607f, 0.074156f, -0.042706f, -0.006985f, 0.039157f, 0.157460f, 0.062571f, 0.179762f, -0.103563f, 0.035487f, 0.113481f, -0.116265f, -0.080434f, -0.127914f, 0.127851f, 0.109624f, -0.074529f, -0.088903f, 0.059687f, 0.021425f, 0.017968f, 0.040083f, 0.111001f, 0.114213f, 0.038302f, -0.129724f, 0.130423f, -0.038681f, 0.081885f, 0.003524f, 0.007929f, 0.104151f, 0.056235f, 0.028913f, -0.031861f, 0.145014f, -0.100343f, -0.039259f, -0.021142f, 0.105450f, -0.016072f, 0.126843f, 0.054362f, 0.144165f, -0.086510f, -0.025950f, 0.178351f, -0.012132f, 0.161185f, 0.029343f, 0.158985f, 0.143829f, -0.136335f, 0.150295f, 0.049222f, 0.072840f, 0.031795f, -0.069732f, -0.094396f, 0.051081f, -0.017545f, -0.177209f, 0.267916f, -0.181358f, 0.073398f, 0.065039f, 0.187430f, 0.032657f, 0.143958f, -0.003098f, -0.101063f, -0.059433f, -0.132588f, 0.079107f, 0.038493f, -0.163352f, -0.130747f, 0.040767f, 0.003850f, 0.278948f, 0.100859f, 0.014814f, -0.132042f, -0.218009f, 0.016166f, 0.029963f, 0.072011f, -0.086404f, 0.100426f, -0.206523f, -0.067192f, -0.092500f, 0.188230f, 0.209401f, 0.130744f, 0.074492f, -0.084583f, 0.024302f, -0.052867f, -0.096026f, 0.166115f, 0.097861f, 0.090210f, -0.198026f, 0.034326f, -0.173998f, 0.037146f, 0.063589f, -0.001942f, 0.248022f, 0.084850f, 0.273912f, 0.121497f, -0.072432f, 0.236704f, -0.041726f, -0.041080f, -0.242243f, -0.203447f, -0.081485f, 0.154690f, 0.231022f, -0.193275f, -0.182296f, 0.007069f, -0.029205f, 0.120107f, -0.014037f, 0.001325f, 0.018329f, 0.111141f, 0.121337f, 0.196216f, 0.252256f, -0.016441f, -0.037743f, 0.082285f, 0.101950f, -0.058572f, -0.211096f, 0.034103f, -0.045944f, 0.001043f, -0.043145f, 0.112591f, 0.194189f, 0.065986f, -0.035183f, 0.247069f, -0.070107f, 0.224887f, 0.028846f, 0.016936f, -0.116439f, -0.080151f, -0.098063f, -0.136274f, 0.221668f, -0.144290f, -0.100829f, -0.140656f, -0.013197f, -0.118318f, 0.257286f, -0.087171f, -0.022860f, -0.099722f, -0.040933f, 0.105456f, 0.081774f, -0.205435f, -0.006177f, 0.080173f, 0.227819f, 0.188116f, -0.104682f, -0.043660f, -0.196664f, -0.039011f, -0.116218f, -0.022550f, -0.098197f, 0.013075f, -0.158766f, -0.002063f, -0.222206f, 0.149861f, 0.469075f, -0.619644f, 0.555792f, -0.581511f, 0.345220f, -0.773205f, 0.420672f, -0.718475f, -0.785411f, -0.882457f, -0.911999f, 0.083564f, 0.740470f, 0.419672f, -1.605692f, 0.308966f, -0.048966f, 0.618696f, 0.916093f, -1.262811f, -0.587181f, -1.503436f, 0.527895f, 0.322093f, 0.304072f, -0.873387f, -0.696418f, -0.606199f, -0.089012f, 0.672723f, 0.492500f, 0.056657f, 0.514790f, -1.091332f, -0.783947f, -0.604999f, 0.753824f, 0.458975f, -0.743868f, 0.480458f, 0.312393f, -0.010137f, 0.443963f, 0.572676f, 0.481643f, -1.583435f, -0.006071f, 0.465757f, -1.412883f, 0.379258f, -0.884756f, -0.727512f, -0.986854f, -0.978900f, 0.516519f, -1.451595f, 0.463399f, 0.818451f, 0.233263f, 0.306148f, 0.389853f, -1.271833f, -0.928062f, 0.299052f, 0.435941f, -0.724790f, -0.785303f, 0.508035f, -1.154513f, 0.366529f, 0.450660f, 0.404780f, -0.751886f, -1.008464f, -1.301902f, -1.345198f, -1.537116f, 0.315114f, 0.061334f, 0.260792f, 0.122548f, 0.205279f, -0.923748f, 0.435551f, 0.513911f, -1.001771f, 0.004443f, -1.155316f, 0.068320f, -1.555726f, 0.347135f, -1.580274f, 0.608850f, -0.041840f, 0.159834f, -0.040526f, -0.007813f, 0.326046f, -0.873736f, 0.266588f, 0.428147f, 0.449194f, -1.554157f, 0.222347f, -0.894736f, 0.283798f, -0.924206f, 0.312345f, -0.900841f, -1.362014f, -0.208305f, 0.433343f, -0.120176f, 0.425512f, -0.990850f, -0.872147f, 0.680175f, 0.310670f, 0.254400f, -0.818226f, 0.303682f, 0.450072f, 0.467537f, 0.412650f, 0.322562f, -0.328174f, 0.256044f, -1.334664f, 0.288000f, -0.375810f, 0.383090f, -0.318665f, 0.052065f, -0.255186f, 0.398841f, -0.355772f, -0.245497f, -0.160805f, -0.155389f, -0.161549f, 0.309748f, 0.335363f, -0.450710f, 0.110265f, 0.181605f, 0.091619f, 0.284825f, -0.168091f, -0.299592f, -0.414766f, 0.221687f, 0.362747f, 0.119471f, -0.275051f, -0.350170f, -0.358450f, -0.079754f, 0.247839f, 0.195883f, 0.013960f, 0.261638f, -0.369027f, -0.149232f, -0.540447f, 0.432330f, 0.118646f, -0.463840f, 0.270781f, 0.412299f, -0.053230f, 0.319659f, 0.209517f, 0.446691f, -0.251889f, 0.013800f, 0.362689f, -0.295756f, 0.221923f, -0.146029f, -0.367798f, -0.138046f, -0.202786f, 0.256509f, -0.329795f, 0.226078f, 0.355982f, 0.009403f, 0.071244f, 0.421658f, -0.234533f, -0.213162f, 0.061201f, 0.134525f, -0.273094f, -0.083215f, 0.398233f, -0.252554f, 0.276708f, 0.316835f, 0.225520f, -0.163564f, -0.294517f, -0.098898f, -0.471801f, -0.106441f, 0.304775f, -0.024156f, 0.138052f, 0.368723f, 0.300804f, -0.443953f, 0.225998f, 0.310080f, -0.328550f, -0.042438f, -0.300100f, 0.269825f, -0.490081f, 0.286846f, -0.444458f, 0.353070f, -0.137964f, 0.071239f, -0.002905f, -0.063679f, 0.013538f, -0.225941f, 0.136900f, 0.439380f, 0.232710f, -0.392812f, 0.368163f, -0.360859f, 0.376790f, -0.469780f, 0.395568f, -0.190652f, -0.442356f, -0.347669f, 0.213206f, -0.315927f, 0.449860f, -0.182709f, -0.219299f, 0.220150f, 0.413490f, 0.101801f, -0.158404f, 0.116266f, 0.454999f, 0.232270f, 0.115680f, 0.459316f, -0.155213f, 0.161755f, -0.373181f, 0.030873f, 0.166706f, 0.027951f, 0.034614f, -0.196255f, 0.143172f, -0.064159f, 0.089334f, 0.052108f, 0.173804f, 0.402509f, -0.048537f, -0.039582f, -0.273772f, 0.060448f, -0.130399f, -0.172489f, -0.186866f, -0.086437f, 0.196129f, 0.145759f, 0.135737f, -0.185182f, -0.028966f, -0.213998f, 0.321622f, 0.143033f, 0.170960f, -0.059579f, -0.173330f, -0.256262f, 0.027299f, -0.176417f, 0.056787f, 0.214269f, 0.078218f, -0.180000f, -0.104911f, 0.241374f, -0.216549f, -0.017262f, -0.038262f, -0.125167f, -0.332933f, -0.049728f, 0.124212f, -0.273773f, -0.251912f, 0.300072f, -0.198117f, 0.177044f, 0.215205f, 0.246486f, -0.020748f, -0.140699f, 0.327972f, -0.141624f, -0.033053f, -0.165298f, -0.190827f, -0.091211f, -0.009347f, 0.193486f, -0.002009f, -0.050718f, 0.097331f, 0.309410f, -0.019157f, 0.134224f, -0.199209f, -0.023110f, -0.145275f, 0.038040f, 0.140916f, 0.291912f, 0.118206f, 0.132734f, -0.310366f, 0.281205f, -0.223624f, -0.248839f, -0.145205f, 0.259521f, -0.286818f, -0.082200f, 0.050089f, 0.303932f, 0.277057f, -0.111081f, 0.325193f, -0.284720f, 0.046934f, -0.219778f, 0.143741f, -0.018508f, -0.216392f, -0.095440f, 0.026913f, 0.275674f, -0.285077f, -0.254865f, -0.017938f, 0.046970f, -0.247930f, 0.097035f, -0.075192f, 0.224874f, -0.090389f, 0.073535f, 0.227068f, 0.203357f, 0.075948f, 0.301924f, -0.130146f, 0.114349f, 0.058933f, -0.269823f, 0.018566f, -0.026882f, 0.150277f, -0.361004f, -0.187427f, -0.184523f, -0.010532f, -0.066073f, 0.020579f, -0.094882f, 0.003746f, -0.044160f, -0.134476f, 0.242096f, -0.061729f, 0.116550f, 0.091065f, -0.119768f, -0.071695f, -0.144443f, 0.010118f, -0.216989f, 0.128134f, 0.006894f, 0.204493f, -0.033809f, -0.072444f, 0.168733f, 0.219491f, 0.079924f, -0.127335f, -0.116354f, -0.005246f, 0.055360f, 0.080916f, 0.139181f, -0.057877f, 0.052383f, -0.115456f, 0.020223f, 0.093260f, 0.135828f, -0.142563f, -0.052340f, -0.206945f, -0.208430f, -0.192366f, 0.155732f, -0.085796f, -0.240504f, 0.164875f, 0.057924f, 0.033322f, -0.113465f, -0.102515f, 0.159508f, -0.149156f, -0.247018f, -0.029484f, -0.169123f, 0.138243f, -0.109266f, 0.061001f, -0.142831f, -0.059718f, 0.029301f, 0.052685f, 0.143841f, 0.000622f, 0.299294f, 0.062209f, 0.078721f, -0.016541f, 0.018878f, 0.091891f, 0.069004f, -0.183810f, 0.051941f, 0.073134f, 0.005422f, 0.202029f, 0.131868f, 0.026475f, -0.020514f, -0.079414f, -0.155810f, 0.091897f, -0.109815f, -0.037470f, -0.387325f, 0.167828f, -0.115215f, 0.146640f, -0.061500f, -0.123268f, 0.146910f, -0.230436f, 0.088091f, -0.249129f, -0.051602f, -0.018728f, -0.015390f, -0.164729f, -0.103997f, 0.112468f, 0.120745f, 0.339893f, 0.329370f, 0.173464f, 0.047239f, 0.112153f, -0.091921f, 0.047456f, 0.083348f, -0.014592f, -0.215638f, 0.025065f, -0.178914f, 0.164872f, -0.136534f, -0.200712f, 0.065263f, 0.064625f, -0.149289f, -0.055428f, 0.058458f, -0.179754f, -0.042229f, -0.086088f, -0.104998f, -0.160264f, -0.129578f, 0.131105f, 0.027685f, 0.001117f, 0.156739f, -0.195301f, 0.050502f, -0.192030f, 0.101295f, -0.183247f, 0.128153f, -0.250556f, -0.061156f, -0.217676f, -0.037370f, -0.047032f, -0.209041f, -0.187586f, -0.255018f, -0.018784f, -0.084248f, 0.158777f, 0.025770f, 0.239551f, -0.093508f, 0.155636f, -0.110986f, -0.224323f, -0.142705f, 0.001080f, 0.140284f, 0.239548f, 0.091344f, -0.201305f, -0.280930f, -0.222430f, -0.163199f, 0.041523f, 0.264233f, -0.027851f, 0.320494f, -0.057362f, -0.105781f, -0.193467f, 0.249730f, 0.184144f, -0.090862f, 0.230193f, 0.185827f, 0.163186f, -0.043133f, 0.067390f, -0.013680f, -0.090513f, -0.256727f, 0.232676f, -0.145678f, 0.101030f, -0.134754f, -0.065400f, -0.188137f, -0.202339f, -0.068235f, -0.183651f, -0.058178f, 0.072240f, 0.207923f, 0.170673f, 0.098947f, -0.166481f, -0.054530f, -0.036500f, 0.016414f, 0.131179f, -0.028205f, 0.069507f, -0.249495f, -0.002454f, 0.069619f, 0.099585f, -0.229659f, -0.203899f, -0.072242f, -0.116394f, 0.008327f, 0.060649f, 0.055388f, 0.010677f, 0.046271f, 0.222666f, -0.042101f, 0.169544f, 0.139939f, -0.128450f, -0.023271f, -0.069162f, 0.089320f, -0.200903f, -0.081862f, -0.039760f, 0.178551f, -0.148109f, 0.042037f, 0.271576f, 0.086704f, -0.073614f, -0.150785f, 0.089497f, 0.273522f, 0.173866f, -0.117473f, 0.170738f, -0.135588f, 0.239570f, -0.214566f, 0.236674f, -0.225971f, -0.163595f, 0.043453f, 0.050493f, 0.034069f, -0.052857f, 0.074151f, -0.040451f, 0.154291f, 0.199825f, 0.066269f, 0.088459f, -0.000450f, 0.013504f, -0.028189f, 0.144732f, 0.034089f, -0.147546f, 0.072659f, 0.100086f, -0.007101f, -0.042356f, -0.171543f, 0.145176f, -0.191347f, 0.154526f, -0.214094f, 0.036106f, 0.068170f, 0.281873f, 0.248068f, 0.096444f, -0.403816f, -0.267263f, 0.063662f, -0.077756f, -0.078212f, -0.061122f, -0.220485f, 0.204996f, 0.233201f, 0.211990f, -0.276270f, 0.005573f, -0.045614f, 0.217621f, 0.246821f, 0.131304f, -0.118338f, -0.159077f, -0.232700f, -0.134744f, -0.026188f, 0.279522f, 0.072089f, 0.074022f, -0.131791f, -0.109905f, 0.067858f, -0.170130f, -0.025197f, -0.064592f, -0.339040f, -0.076298f, -0.289489f, 0.116126f, -0.208751f, -0.354398f, 0.199993f, -0.175953f, 0.046600f, 0.204177f, 0.249748f, 0.269186f, -0.524684f, 0.192328f, -0.309070f, -0.005924f, 0.032733f, -0.039888f, -0.178518f, 0.100424f, 0.287457f, 0.241356f, -0.200953f, 0.017585f, 0.280809f, -0.301124f, 0.072855f, -0.378613f, -0.315334f, -0.115673f, 0.193288f, 0.020228f, 0.226481f, 0.274759f, 0.156522f, -0.000342f, -0.137983f, -0.302904f, -0.212527f, -0.326041f, 0.130969f, -0.067148f, -0.005159f, 0.240849f, 0.098969f, 0.239739f, -0.341085f, 0.319155f, -0.030117f, 0.035541f, -0.181048f, -0.014773f, 0.011759f, 0.150507f, 0.211131f, -0.244573f, 0.103396f, -0.275260f, -0.297662f, -0.112552f, 0.283863f, -0.369255f, -0.020759f, -0.245808f, 0.263896f, -0.075408f, 0.187350f, 0.261271f, 0.151953f, -0.111157f, 0.049942f, -0.403551f, 0.264309f, 0.030552f, -0.023819f, -0.192122f, -0.073336f, 0.202319f, -0.085609f, -0.114591f, -0.378499f, -0.113546f, -0.355622f, 0.288007f, -0.323136f, 0.071371f, -0.732302f, 0.983885f, -0.761128f, 0.888456f, -1.026878f, 0.725537f, -0.993879f, 0.916236f, 0.914611f, 0.689078f, 0.748021f, 0.077046f, -0.876620f, -0.805902f, 1.012973f, -0.937346f, -0.108710f, -0.787363f, -0.831631f, 0.784212f, 0.906379f, 0.891233f, -0.868495f, -0.827258f, -0.880282f, 0.935040f, 0.961428f, 0.766375f, -0.051184f, -1.023360f, -0.987593f, -0.111508f, -0.914338f, 0.740743f, 0.855953f, 1.022125f, -0.969689f, -0.842637f, 0.964469f, -0.828145f, -0.678060f, -0.107604f, -0.916612f, -0.147658f, -1.010084f, 0.974184f, -0.073330f, -0.671907f, 0.802101f, -0.936938f, 0.760910f, 0.727899f, 0.980462f, 0.730116f, -0.745050f, 0.836420f, -0.927011f, -0.812165f, 0.056514f, -0.759555f, -0.861109f, 0.735869f, 0.878885f, 0.295846f, -0.913818f, 0.755363f, 0.981377f, -0.824953f, 0.930494f, -0.893665f, -0.735754f, -0.894613f, 0.900590f, 0.913785f, 0.725828f, 0.984163f, 0.708569f, -0.856188f, 0.637982f, -0.976331f, -0.809534f, -0.652198f, 0.929618f, -0.991116f, -0.692029f, 0.971620f, 0.824709f, 0.718624f, -0.791532f, 0.881861f, -0.931489f, 0.804136f, -0.792087f, 0.110819f, 0.014492f, -0.138387f, 0.048579f, -0.879197f, 0.921902f, -0.880828f, -0.893034f, -0.954513f, 0.873812f, -0.886391f, 0.929540f, -0.869006f, 0.725200f, -0.950453f, 0.892647f, 0.993599f, 0.684414f, -0.841010f, 0.711016f, -0.798278f, 0.693860f, 0.736201f, -0.826430f, -0.743240f, -0.839884f, 0.966905f, -0.988577f, -0.939407f, -0.980062f, -0.961915f, -0.815312f, 0.931904f, -0.921307f, 0.950550f, -0.377796f, 0.434822f, -0.589464f, 0.691866f, -0.346507f, 0.573709f, -0.800277f, 0.421852f, 0.523208f, 0.475675f, 0.404156f, 0.038689f, -0.612549f, -0.536949f, 0.871463f, -0.687933f, 0.197677f, -0.456287f, -1.046978f, 0.602492f, 0.477310f, 0.566146f, -0.486228f, -0.394297f, -0.591014f, 0.531391f, 0.590962f, 0.704348f, 0.021158f, -0.853854f, -0.482859f, 0.081504f, -0.726641f, 0.716831f, 0.456290f, 0.383503f, -0.788826f, -0.514123f, 0.703259f, -0.699819f, -0.471936f, 0.171781f, -0.668036f, -0.686779f, -0.588869f, 0.537268f, -0.294147f, -0.676608f, 0.540174f, -0.533416f, 0.534003f, 0.535622f, 0.572473f, 0.478923f, -0.935483f, 0.530325f, -0.517093f, -0.689469f, 0.305609f, -0.642134f, -0.591777f, 0.557900f, 0.679981f, -0.112497f, -0.387682f, 0.752209f, 0.747479f, -0.644473f, 0.466624f, -0.341250f, -0.550866f, -0.436765f, 0.546267f, 0.595815f, 0.404333f, 0.512928f, 0.713981f, -0.296792f, 0.323417f, -0.492045f, -0.394793f, -0.598624f, 0.566963f, -0.635000f, -0.450833f, 0.557819f, 0.765673f, 0.450253f, -0.468186f, 0.671766f, -0.456992f, 0.491735f, -0.374678f, 0.025642f, 0.142426f, -0.177956f, -0.190665f, -0.617209f, 0.546923f, -0.469349f, -0.815012f, -0.633279f, 0.732647f, -0.646739f, 0.470903f, -0.550954f, 0.440642f, -0.415563f, 0.534053f, 0.504182f, 0.479241f, -0.340053f, 0.675285f, -0.597150f, 0.704199f, 0.608864f, -0.680844f, -0.621222f, -0.548085f, 0.509578f, -0.573262f, -0.859862f, -0.501419f, -0.622511f, -0.380666f, 0.555258f, -0.621584f, 0.677912f, -0.064569f, 0.114379f, -0.061616f, 0.042730f, 0.023715f, -0.071308f, -0.093840f, 0.091257f, 0.030577f, 0.167425f, 0.231299f, -0.169479f, -0.182542f, -0.081896f, -0.139765f, -0.057693f, -0.127328f, -0.134004f, -0.139991f, 0.125306f, 0.131026f, -0.188582f, -0.233216f, -0.154754f, 0.162821f, -0.064055f, 0.169565f, -0.082020f, -0.121582f, -0.373693f, 0.084877f, -0.139445f, -0.185550f, 0.093893f, 0.088406f, 0.187031f, 0.054933f, -0.000046f, 0.170825f, 0.100940f, -0.014835f, 0.076963f, 0.028052f, -0.222972f, 0.060364f, -0.122856f, 0.049285f, -0.143265f, -0.002303f, -0.205334f, 0.037351f, -0.057297f, -0.093508f, -0.064253f, -0.044115f, 0.083274f, -0.128384f, -0.077972f, 0.230195f, 0.102043f, 0.159109f, -0.122390f, -0.069163f, 0.224281f, -0.042354f, -0.029858f, 0.049179f, -0.129766f, 0.083465f, 0.038947f, -0.167877f, -0.045379f, 0.073954f, 0.129186f, -0.166965f, -0.022505f, -0.101537f, 0.166750f, -0.003953f, -0.051060f, -0.124690f, -0.029595f, 0.080848f, -0.163111f, -0.193737f, -0.026563f, 0.215928f, -0.071934f, -0.209484f, -0.054785f, -0.114147f, -0.016016f, -0.228050f, -0.064106f, -0.079046f, 0.159763f, -0.018277f, 0.006722f, -0.139439f, 0.034815f, -0.037646f, -0.040957f, -0.202983f, -0.117808f, 0.063758f, 0.146745f, 0.075643f, 0.077295f, -0.107755f, -0.006175f, 0.166847f, -0.110992f, 0.179254f, -0.010504f, -0.180968f, -0.021539f, -0.128934f, -0.124986f, -0.176598f, 0.099443f, -0.319696f, -0.201645f, -0.063768f, 0.084817f, 0.153100f, 0.202135f, -0.130447f, -0.025837f, 0.089974f, 0.037859f, -0.006071f, -0.017195f, -0.240020f, 0.121416f, 0.074164f, -0.049748f, 0.193044f, -0.039040f, 0.271252f, -0.032920f, -0.191619f, -0.209002f, 0.210676f, -0.017787f, -0.068355f, -0.010933f, 0.103305f, 0.053796f, 0.134683f, 0.266450f, -0.078055f, 0.039759f, 0.002490f, -0.085345f, 0.029720f, 0.120501f, -0.097470f, -0.062923f, -0.284834f, -0.158575f, 0.124728f, 0.061177f, 0.055013f, 0.152943f, -0.057372f, -0.094593f, 0.189827f, -0.107645f, -0.166731f, -0.049787f, -0.210423f, 0.133780f, 0.038103f, 0.097663f, -0.097519f, -0.224306f, 0.097788f, -0.089485f, 0.206401f, -0.029401f, 0.177458f, 0.185807f, 0.039187f, 0.045423f, -0.193414f, -0.104915f, 0.007810f, -0.094348f, 0.036021f, 0.101937f, 0.084825f, 0.193987f, -0.233921f, 0.253491f, 0.100403f, -0.127198f, 0.253281f, -0.162846f, -0.167556f, -0.158967f, 0.291748f, 0.145971f, 0.177764f, 0.127385f, 0.108879f, -0.171941f, 0.136605f, -0.044444f, -0.155040f, -0.232652f, 0.246266f, -0.188962f, -0.096239f, 0.002537f, 0.122135f, 0.186166f, -0.069206f, 0.167835f, -0.103120f, -0.055022f, -0.018284f, 0.011993f, -0.085497f, -0.065877f, 0.167277f, -0.128720f, 0.233594f, -0.168596f, -0.239646f, -0.124894f, 0.197253f, -0.047098f, 0.183273f, 0.030314f, 0.077162f, -0.030879f, -0.009674f, 0.053825f, 0.218852f, 0.014599f, -0.069825f, 0.057381f, 0.071558f, -0.070844f, -0.173965f, -0.035145f, 0.042539f, -0.067431f, 0.046856f, 0.026239f, -0.249786f, -0.206160f, -0.030446f, 0.039598f, 0.050806f, 0.022546f, 1.026043f, -1.144855f, 0.927457f, -1.081448f, 1.291423f, -1.212350f, 1.194711f, -1.204732f, -0.956407f, -1.193659f, -1.219441f, 0.087078f, 1.289867f, 1.228708f, -1.000353f, 0.988752f, -0.133709f, 1.199334f, 0.103899f, -0.879068f, -1.243527f, -1.253340f, 0.932002f, 1.154380f, 1.082098f, -1.060192f, -1.020658f, -0.925696f, 0.107141f, -0.067236f, 1.324911f, -0.072822f, 1.320650f, -1.123369f, -0.885849f, -1.226948f, 1.057464f, 1.260530f, -1.006545f, 1.220796f, 1.185191f, 0.144543f, 1.251693f, 0.220681f, 1.072453f, -1.237229f, 0.318603f, 1.163615f, -1.113508f, 1.333325f, -1.156944f, -1.198966f, -1.175152f, -1.046635f, -0.070456f, -0.996505f, 1.228267f, 0.881968f, -0.255199f, 1.220305f, 1.121327f, -1.101256f, -1.140753f, -0.071138f, 0.957032f, -1.056555f, -1.194565f, 1.305250f, -1.040867f, 1.187445f, 1.287123f, 1.037454f, -1.025642f, -1.190677f, -0.927916f, -1.082029f, -1.126569f, 1.155549f, -0.106574f, 1.180336f, 1.217495f, 0.876084f, -1.126901f, 1.140301f, 1.062850f, -0.932315f, -0.485172f, -1.100118f, 1.139937f, -1.165223f, 1.167048f, -0.933866f, 1.243864f, -0.037411f, -0.061846f, 0.123623f, -0.085863f, 0.918635f, -1.028555f, 0.966424f, 1.092336f, 1.190743f, -0.936687f, 1.125434f, -0.945814f, 1.190434f, -1.193688f, 1.151753f, -0.945303f, -1.098446f, -0.986189f, 1.170914f, -0.989211f, 0.968669f, -0.893906f, -1.150046f, 1.011470f, 1.003837f, 1.158114f, -0.893227f, -0.315198f, 1.016528f, 1.058494f, 1.102589f, 1.031520f, -0.917861f, 1.208773f, -1.212805f, 0.031975f, 0.144475f, -0.065867f, 0.172689f, -0.125661f, -0.037836f, -0.030931f, -0.175380f, 0.086821f, 0.148706f, -0.052366f, -0.180101f, -0.095759f, 0.050654f, 0.054604f, 0.019467f, 0.032200f, 0.005108f, 0.008090f, -0.115110f, 0.135026f, 0.048920f, -0.073434f, -0.033494f, -0.092471f, -0.036822f, -0.053054f, 0.133676f, 0.050991f, 0.254907f, 0.041193f, -0.167993f, -0.172896f, -0.027054f, -0.213679f, 0.016607f, -0.204508f, -0.096498f, 0.042729f, -0.088518f, 0.003369f, -0.063350f, 0.000468f, -0.005002f, -0.143949f, 0.192467f, -0.159197f, -0.043944f, -0.058934f, -0.122137f, -0.110484f, 0.141567f, 0.113475f, -0.122452f, 0.127436f, -0.073009f, -0.011649f, -0.138180f, 0.208588f, -0.176969f, 0.144965f, -0.056998f, 0.130304f, 0.355158f, 0.139551f, -0.072205f, -0.213220f, -0.124380f, 0.103148f, -0.073298f, -0.022829f, 0.158444f, -0.005807f, -0.030614f, 0.073436f, -0.115770f, 0.152449f, 0.019410f, -0.058045f, 0.012796f, -0.097328f, -0.186393f, 0.020367f, -0.040045f, 0.152620f, 0.002146f, 0.010790f, 0.088016f, -0.230823f, -0.045100f, 0.143854f, 0.043721f, -0.098717f, 0.060395f, -0.133830f, 0.237018f, -0.747632f, -0.120287f, 0.039371f, -0.175440f, 0.056369f, 0.019410f, 0.152312f, -0.064846f, -0.138229f, -0.149756f, 0.011595f, 0.006267f, -0.197782f, 0.146919f, -0.073980f, 0.112646f, 0.195393f, 0.047822f, -0.059973f, 0.108516f, -0.039741f, -0.067347f, -0.007958f, -0.003439f, 0.091592f, 0.061960f, -0.192572f, 0.002561f, 0.019107f, 0.074895f, -0.001745f, 0.078812f, -0.081125f, 0.207860f, -0.192687f, 0.284854f, 0.020236f, 0.287555f, -0.010246f, 0.121159f, 0.034481f, 0.304127f, 0.087127f, -0.128127f, -0.139326f, 0.068306f, 0.006447f, 0.014353f, -0.103144f, 0.103151f, 0.151290f, 0.151906f, 0.101996f, 0.153400f, -0.168431f, 0.012131f, -0.174008f, 0.201256f, 0.078758f, 0.276823f, -0.122264f, 0.198799f, 0.042090f, -0.172864f, -0.128218f, 0.304460f, -0.035321f, 0.171055f, -0.061641f, 0.068017f, 0.290205f, -0.022410f, -0.158873f, -0.070435f, -0.191939f, 0.165101f, -0.104485f, 0.062815f, -0.039778f, -0.009236f, 0.001431f, -0.191761f, 0.139098f, 0.160441f, 0.051206f, 0.192629f, 0.080839f, 0.071924f, -0.088525f, 0.148009f, -0.162786f, -0.144508f, -0.158475f, 0.116959f, 0.028870f, 0.112348f, 0.023655f, 0.102070f, 0.134859f, -0.209044f, 0.211741f, -0.186764f, -0.154293f, -0.264440f, 0.211538f, 0.160862f, -0.001053f, 0.247503f, 0.156147f, -0.277391f, -0.025223f, 0.028506f, 0.014242f, 0.067395f, 0.108919f, -0.016218f, -0.056421f, 0.301861f, -0.052072f, 0.087212f, -0.130152f, 0.100681f, -0.176713f, 0.002445f, -0.109314f, 0.094077f, 0.018440f, -0.160153f, -0.114830f, -0.019468f, 0.157463f, -0.229620f, -0.117274f, -0.238325f, 0.240415f, 0.062561f, 0.128895f, -0.169195f, 0.140442f, -0.116486f, 0.054746f, 0.118353f, 0.176966f, -0.094946f, 0.032812f, -0.168778f, -0.019702f, 0.198490f, -0.089565f, -0.157750f, -0.205451f, 0.216718f, 0.215962f, -0.030827f, -0.207702f, -0.082499f, -0.219758f, 0.067660f, -0.072578f, 0.295149f, -0.192858f, -0.118657f, 0.114861f, 0.222697f, 0.165968f, 0.048514f, 0.089301f, -0.060704f, 0.206185f, 0.180889f, -0.115690f, -0.146323f, -0.113343f, -0.047287f, 0.010476f, 0.008055f, -0.081241f, -0.133468f, -0.107057f, -0.022133f, 0.155177f, -0.032087f, 0.009134f, -0.061141f, -0.022834f, 0.228694f, 0.040010f, -0.028828f, 0.093281f, -0.271180f, 0.011818f, 0.006951f, -0.103440f, 0.138087f, -0.049552f, 0.251856f, -0.043589f, -0.123710f, 0.077858f, -0.068798f, -0.022713f, 0.151323f, -0.028684f, -0.232116f, 0.001023f, 0.217333f, -0.062710f, 0.095157f, 0.158056f, 0.052686f, 0.173700f, 0.051165f, 0.035267f, 0.120882f, -0.102129f, 0.076791f, -0.037150f, -0.205053f, 0.082442f, -0.151718f, -0.104570f, -0.042225f, -0.068407f, -0.160853f, -0.010944f, 0.158406f, 0.138105f, 0.014479f, 0.144993f, -0.089428f, -0.083757f, -0.104011f, 0.196726f, -0.071093f, 0.144709f, 0.205334f, 0.200591f, -0.138351f, 0.283603f, -0.118607f, 0.101890f, -0.153440f, 0.062378f, -0.131439f, 0.098276f, 0.226092f, 0.066381f, 0.161462f, -0.010921f, 0.085388f, -0.188279f, 0.147909f, 0.068156f, -0.101746f, -0.184101f, -0.073535f, -0.260037f, 0.002060f, 0.170240f, -0.147435f, 0.087487f, -0.151686f, 0.060684f, 0.030990f, -0.047668f, -0.031008f, 0.161569f, -0.096915f, 0.133624f, -0.035052f, 0.027066f, -0.160153f, 0.082066f, -0.063599f, 0.202612f, -0.017002f, 0.130067f, 0.097019f, 0.074606f, -0.091606f, -0.149282f, -0.142047f, 0.050355f, 0.033842f, 0.095675f, 0.114183f, 0.107738f, 0.016231f, 0.268067f, -0.356103f, 0.181934f, -0.360058f, -0.047873f, -0.270545f, 0.148827f, -0.101890f, -0.199863f, -0.376382f, -0.280042f, -0.105927f, 0.244945f, 0.255789f, -0.245179f, 0.161017f, -0.078103f, 0.370658f, 0.194896f, -0.235858f, -0.335968f, -0.139673f, 0.282482f, 0.152934f, 0.206310f, -0.248368f, -0.406794f, -0.340341f, -0.157721f, 0.185947f, 0.037649f, 0.138338f, 0.410824f, -0.048117f, 0.019763f, -0.343744f, 0.146829f, 0.227673f, -0.436982f, 0.324015f, 0.140768f, -0.121328f, 0.254931f, 0.301672f, 0.144830f, -0.011366f, -0.213265f, 0.319272f, -0.097161f, 0.264100f, -0.041329f, -0.058560f, -0.241068f, -0.125492f, 0.196146f, -0.255994f, -0.063255f, 0.165951f, -0.128982f, 0.133664f, 0.033291f, 0.042696f, -0.225436f, -0.148891f, -0.031370f, -0.262241f, -0.099282f, 0.279515f, -0.218001f, 0.146928f, 0.211581f, 0.317766f, -0.202000f, -0.388860f, -0.040404f, -0.204500f, -0.011402f, 0.281774f, 0.007991f, 0.038826f, -0.054102f, -0.066928f, -0.225479f, 0.084089f, 0.196944f, -0.200973f, 0.138378f, -0.093937f, 0.251484f, -0.269977f, 0.209867f, -0.115008f, 0.212808f, -0.072196f, -0.087082f, 0.086552f, -0.085435f, 0.188051f, -0.116007f, 0.139739f, -0.010955f, 0.102838f, -0.242217f, 0.066030f, -0.357783f, 0.114541f, -0.478744f, 0.309864f, -0.134762f, -0.192682f, -0.215662f, 0.251183f, -0.165550f, 0.415817f, 0.037427f, -0.241517f, 0.261371f, 0.201150f, -0.048690f, -0.083011f, 0.001063f, 0.040409f, -0.224495f, 0.199907f, 0.103803f, -0.057510f, -0.035400f, -0.238292f, 0.144204f, 0.276201f, 0.109595f, 0.139908f, -0.239541f, 0.270072f, 0.065545f, 0.098202f, 0.240566f, 0.256260f, 0.148747f, 0.155243f, 0.197686f, 0.050285f, -0.013663f, 0.312075f, -0.173713f, 0.028422f, -0.014849f, -0.131220f, 0.216333f, -0.104906f, -0.053755f, 0.009347f, -0.121906f, 0.013710f, 0.203791f, 0.222971f, -0.012148f, -0.119387f, -0.161657f, 0.002092f, 0.175644f, -0.137694f, 0.210571f, 0.185568f, -0.059203f, 0.097376f, 0.083971f, 0.297294f, -0.036532f, -0.040424f, -0.114077f, 0.012965f, -0.056505f, -0.161568f, -0.132217f, 0.154115f, -0.118563f, -0.105910f, -0.099989f, 0.199469f, -0.058965f, -0.094172f, 0.120071f, -0.098177f, -0.203293f, 0.033952f, 0.234125f, 0.055362f, -0.284791f, -0.171126f, 0.148579f, 0.050571f, -0.040086f, -0.078521f, 0.165805f, 0.061747f, -0.003244f, 0.081484f, 0.246622f, -0.190326f, 0.207972f, -0.051172f, -0.122838f, -0.168284f, 0.045120f, 0.045033f, 0.004667f, -0.217505f, 0.121598f, -0.126504f, 0.084110f, -0.080029f, 0.122261f, -0.171226f, -0.041449f, 0.104439f, 0.023408f, 0.091320f, 0.066379f, -0.007810f, 0.131953f, -0.015316f, -0.183804f, -0.197700f, 0.026038f, -0.154997f, 0.140815f, -0.187175f, -0.071742f, -0.048674f, -0.006332f, 0.053409f, 0.278928f, 0.061423f, -0.028493f, -0.015928f, 0.094859f, 0.061503f, 0.068534f, -0.198711f, 0.133997f, 0.148822f, 0.161233f, 0.022821f, 0.244865f, 0.089465f, 0.111636f, -0.013194f, 0.112153f, 0.225986f, -0.341078f, -0.047974f, -0.282778f, 0.089355f, -0.045970f, 0.158912f, -0.396431f, 0.637812f, -0.345557f, 0.492321f, -0.583050f, 0.486428f, -0.398676f, 0.281267f, 0.529144f, 0.520889f, 0.566557f, 0.039690f, -0.467913f, -0.533191f, 0.571874f, -0.568660f, 0.050523f, -0.280695f, -0.225111f, 0.614992f, 0.416907f, 0.406809f, -0.598997f, -0.509498f, -0.507586f, 0.316358f, 0.390519f, 0.469950f, -0.106903f, -0.534816f, -0.663608f, -0.088980f, -0.487652f, 0.493070f, 0.376419f, 0.348458f, -0.503378f, -0.425636f, 0.517638f, -0.337261f, -0.541760f, -0.151902f, -0.298610f, -0.395283f, -0.668366f, 0.382874f, -0.190402f, -0.465883f, 0.350233f, -0.665321f, 0.370037f, 0.414673f, 0.419742f, 0.470565f, -0.384744f, 0.414774f, -0.286503f, -0.323519f, 0.183527f, -0.339008f, -0.369994f, 0.301952f, 0.568926f, -0.084815f, -0.299894f, 0.509150f, 0.670747f, -0.453835f, 0.570955f, -0.437773f, -0.321957f, -0.443762f, 0.656684f, 0.572621f, 0.544502f, 0.528823f, 0.571412f, -0.550476f, 0.496854f, -0.368842f, -0.555833f, -0.489573f, 0.383893f, -0.634600f, -0.615521f, 0.320403f, 0.258378f, 0.532501f, -0.624796f, 0.583914f, -0.371916f, 0.429518f, -0.611091f, 0.122980f, 0.138417f, -0.274602f, 0.207603f, -0.302601f, 0.569429f, -0.425374f, -0.377563f, -0.363966f, 0.472942f, -0.319516f, 0.485849f, -0.365435f, 0.515604f, -0.427707f, 0.361630f, 0.532793f, 0.531173f, -0.284930f, 0.450674f, -0.570540f, 0.292043f, 0.407078f, -0.410174f, -0.619323f, -0.352786f, 0.589166f, -0.516659f, -0.188919f, -0.329940f, -0.405942f, -0.398030f, 0.374435f, -0.334591f, 0.573218f, -0.210793f, 0.283893f, -0.230923f, 0.220207f, -0.353892f, 0.356409f, -0.127778f, 0.359560f, 0.513554f, 0.222946f, 0.442674f, 0.064590f, -0.282440f, -0.176721f, 0.543177f, -0.368993f, 0.113115f, -0.209145f, -0.347322f, 0.283716f, 0.344605f, 0.511492f, -0.087957f, -0.316996f, -0.277631f, 0.193868f, 0.366559f, 0.171041f, 0.100655f, -0.182207f, -0.471840f, -0.049159f, -0.294481f, 0.399245f, 0.257865f, 0.413515f, -0.084398f, -0.291156f, 0.429255f, -0.183272f, -0.447326f, 0.016467f, -0.333525f, -0.349007f, -0.228076f, 0.447957f, -0.217228f, -0.438468f, 0.262320f, -0.222305f, 0.154879f, 0.229367f, 0.459593f, 0.466502f, -0.125595f, 0.238393f, -0.505663f, -0.248826f, -0.077854f, -0.191693f, -0.319004f, 0.390163f, 0.303772f, 0.141258f, -0.139373f, 0.169199f, 0.242131f, -0.417130f, 0.397173f, -0.471702f, -0.228441f, -0.298760f, 0.285276f, 0.379704f, 0.467985f, 0.407266f, 0.398193f, -0.636215f, 0.207736f, -0.488654f, -0.184786f, -0.156907f, 0.318870f, -0.214729f, -0.225659f, 0.498253f, 0.283601f, 0.187138f, -0.306071f, 0.494737f, -0.126956f, 0.607654f, -0.264929f, -0.048594f, 0.005208f, -0.146888f, -0.059543f, -0.222296f, 0.559683f, -0.260224f, -0.342242f, -0.123790f, 0.480861f, -0.382106f, 0.430312f, -0.269258f, 0.405303f, -0.228469f, 0.265906f, 0.382669f, 0.402116f, -0.165165f, 0.272177f, -0.249783f, 0.172843f, 0.499539f, -0.403277f, -0.307511f, -0.342085f, 0.464721f, -0.175009f, -0.203761f, -0.581973f, -0.317232f, -0.463411f, 0.216820f, -0.188961f, 0.364681f, -0.149832f, 0.217918f, -0.231600f, 0.292701f, -0.327846f, 0.546441f, -0.112907f, 0.270686f, 0.495412f, 0.108137f, 0.319290f, -0.101931f, -0.284035f, -0.101503f, 0.582533f, -0.223820f, 0.032791f, 0.060053f, -0.281996f, 0.120711f, 0.465967f, 0.196553f, -0.229783f, -0.085730f, -0.227027f, 0.347787f, 0.372368f, 0.407769f, 0.050034f, -0.384705f, -0.483854f, -0.078705f, -0.234264f, 0.237371f, 0.262767f, 0.506800f, -0.188593f, -0.105093f, 0.556502f, -0.313322f, -0.312657f, 0.052975f, -0.410778f, -0.393943f, -0.337359f, 0.169056f, -0.090974f, -0.135380f, 0.405627f, -0.112108f, 0.229800f, 0.506304f, 0.637442f, 0.280516f, -0.313719f, 0.205433f, -0.238016f, -0.414220f, 0.082374f, -0.088861f, -0.326504f, 0.216702f, 0.321271f, 0.129291f, -0.382160f, 0.473127f, 0.452621f, -0.391638f, 0.391863f, -0.121308f, -0.260824f, -0.285040f, 0.456895f, 0.480257f, 0.535512f, 0.170767f, 0.151028f, -0.069544f, 0.209018f, -0.231599f, -0.205301f, -0.210845f, 0.424014f, -0.173905f, -0.166532f, 0.145596f, 0.287252f, 0.268684f, -0.306781f, 0.483202f, -0.209948f, 0.382130f, -0.087450f, 0.062689f, 0.115652f, -0.068773f, 0.323819f, -0.182887f, 0.502168f, -0.387767f, -0.321123f, -0.233053f, 0.280485f, -0.147085f, 0.383923f, -0.400768f, 0.518186f, -0.185792f, 0.172966f, 0.394561f, 0.370874f, -0.142639f, 0.516929f, -0.067924f, 0.210089f, 0.191888f, -0.134142f, -0.247208f, -0.442481f, 0.151389f, -0.077712f, -0.140391f, -0.249574f, -0.367961f, -0.255566f, 0.427437f, -0.208918f, 0.175542f, 0.156300f, -0.017718f, 0.250601f, 0.081415f, -0.066034f, -0.075632f, 0.181052f, 0.010552f, 0.125069f, 0.082047f, -0.042027f, -0.016026f, 0.158450f, 0.146955f, 0.038636f, -0.094482f, 0.065572f, -0.070554f, -0.051684f, -0.078667f, -0.106908f, -0.173847f, 0.136726f, 0.188753f, 0.118329f, -0.100960f, -0.163085f, -0.049128f, -0.134843f, -0.006609f, -0.044404f, 0.067864f, -0.047861f, 0.050091f, -0.041860f, 0.152925f, -0.093785f, 0.050118f, -0.086571f, 0.096257f, 0.030564f, 0.125873f, 0.084883f, 0.215758f, 0.098158f, 0.135589f, -0.125449f, 0.241038f, 0.096335f, 0.058633f, -0.134725f, -0.143660f, -0.183879f, -0.094923f, 0.176581f, -0.100453f, -0.081315f, 0.152914f, -0.115181f, -0.122461f, 0.008841f, -0.137171f, -0.038146f, -0.386401f, 0.116466f, 0.170977f, -0.067602f, -0.079713f, -0.065633f, 0.081975f, -0.088579f, -0.085254f, 0.007029f, -0.067625f, -0.117596f, 0.108546f, -0.009244f, -0.217468f, 0.118504f, -0.006349f, -0.022240f, 0.080677f, 0.044882f, 0.139922f, -0.045894f, -0.163473f, -0.028649f, 0.037616f, 0.068241f, -0.175562f, 0.218580f, 0.140552f, 0.031604f, 0.083638f, -0.187764f, -1.056753f, 0.127027f, -0.059448f, 0.028320f, 0.088533f, -0.053570f, 0.126605f, 0.086743f, -0.011014f, 0.008183f, 0.043423f, 0.147959f, 0.094949f, 0.007840f, 0.021126f, 0.073599f, -0.081978f, 0.118926f, 0.124817f, -0.203246f, -0.132936f, 0.005285f, 0.171949f, -0.041295f, -0.172879f, 0.066510f, 0.089617f, 0.169596f, 0.096175f, -0.002061f, -0.081228f, -0.109330f, 0.024519f, 0.235730f, -0.256104f, 0.266089f, -0.261617f, 0.206462f, -0.457133f, 0.366028f, -0.454105f, -0.180520f, -0.231262f, -0.212494f, 0.155408f, 0.488597f, 0.315608f, -0.505570f, 0.362581f, -0.052949f, 0.083914f, -0.176209f, -0.263842f, -0.346287f, -0.266698f, 0.338117f, 0.145346f, 0.246582f, -0.154764f, -0.238583f, -0.217543f, 0.162210f, -0.067092f, 0.402933f, 0.162824f, 0.132946f, -0.421025f, -0.290622f, -0.134925f, 0.165393f, 0.309087f, -0.416166f, 0.297702f, 0.150261f, -0.066876f, 0.143739f, 0.250598f, 0.336941f, -0.379255f, -0.140794f, 0.454316f, -0.200358f, 0.323132f, -0.134392f, -0.449740f, -0.236891f, -0.187463f, -0.146941f, -0.177161f, 0.176103f, -0.031528f, 0.174476f, 0.239996f, 0.190737f, -0.195884f, -0.192905f, 0.361600f, 0.327381f, -0.117190f, -0.319774f, 0.379515f, -0.321315f, 0.065966f, 0.299344f, 0.075163f, -0.272366f, -0.376512f, -0.135033f, -0.418949f, -0.407966f, 0.384904f, -0.502321f, 0.280151f, 0.236766f, 0.145568f, -0.348104f, 0.215012f, 0.252768f, -0.144355f, -0.072055f, -0.246415f, 0.281480f, -0.381759f, 0.271108f, -0.425690f, 0.323574f, 0.042816f, 0.038395f, 0.174653f, -0.293624f, 0.015174f, -0.233255f, 0.173531f, 0.173051f, 0.238178f, -0.289128f, 0.352800f, -0.197497f, 0.116994f, -0.339748f, 0.078514f, -0.264837f, -0.252561f, -0.065212f, 0.239235f, -0.115018f, 0.053633f, -0.352364f, -0.425827f, 0.135200f, 0.105969f, 0.014649f, -0.070109f, -0.264933f, 0.263431f, 0.173240f, 0.226929f, 0.311316f, 0.010301f, 0.306556f, -0.263083f, 0.161106f, -0.040390f, -0.029725f, -0.060007f, -0.093686f, 0.218376f, 0.088618f, 0.122414f, -0.095091f, -0.123863f, 0.051845f, -0.110696f, 0.130299f, -0.038901f, 0.143484f, 0.207900f, -0.009477f, -0.130599f, 0.216196f, 0.237487f, 0.138837f, 0.063625f, -0.033951f, -0.005703f, 0.084987f, 0.173225f, 0.190562f, 0.020700f, 0.091655f, -0.001542f, -0.081304f, 0.045529f, -0.014965f, 0.027217f, -0.156941f, -0.115655f, 0.079975f, 0.027415f, 0.165395f, 0.017225f, -0.007525f, -0.114975f, 0.071612f, 0.177727f, -0.143827f, 0.173811f, -0.022054f, -0.067284f, 0.163179f, -0.039687f, 0.005476f, -0.119082f, -0.148128f, 0.112409f, 0.140931f, 0.036139f, 0.021784f, 0.234414f, -0.546863f, 0.131647f, -0.063269f, 0.047477f, 0.060987f, -1.245412f, 0.032269f, -0.020698f, 0.061695f, -0.096956f, 0.123772f, 0.057518f, 0.062555f, 0.066109f, -0.065104f, 0.034985f, -0.008513f, 0.161730f, 0.137587f, -0.028339f, -0.024741f, -0.146201f, 0.148670f, 0.085979f, 0.120849f, 0.143532f, 0.054623f, 0.137915f, -0.121355f, 0.156599f, 0.061678f, 0.179090f, 0.020211f, 0.152847f, -0.110848f, 0.081021f, 0.036776f, -1.149032f, -0.278699f, 0.102764f, -0.160353f, -0.025367f, -0.149312f, -0.033667f, -0.018898f, 0.184758f, 0.106514f, -0.114937f, -0.025787f, 0.000969f, -0.026504f, 0.141371f, -0.030587f, -0.110305f, 0.068142f, 0.066715f, -0.035860f, 0.159436f, 0.077340f, 0.099042f, 0.113744f, -0.128411f, 0.136452f, 0.071082f, 0.075354f, -0.007369f, 0.116968f, 0.037832f, -0.071894f, -0.093721f, 0.151821f, -0.046099f, -0.127360f, 0.088430f, -0.058952f, -0.021461f, -0.190003f, -0.171529f, -0.016863f, -0.137690f, -0.050611f, -0.096914f, -0.066003f, -0.142143f, -0.125504f, -0.007456f, 0.158073f, 0.115708f, -0.151344f, -0.248483f, -0.128237f, -0.283048f, 0.074032f, 0.147846f, 0.003533f, -0.070869f, -0.210566f, -0.050515f, -0.153298f, 0.209457f, 0.187861f, 0.009076f, -0.075451f, -0.180509f, 0.011861f, -0.188642f, -0.088228f, 0.080248f, 0.044358f, -0.067150f, -0.030671f, 0.147129f, -0.025612f, -0.042641f, -0.052483f, -0.134268f, 0.051863f, 0.102555f, 0.039347f, -0.017676f, -0.015244f, 0.028957f, -0.057025f, -0.112829f, 0.082232f, 0.073428f, -0.027067f, -0.145639f, 0.138999f, 0.168519f, 0.120384f, -0.227948f, -0.097700f, 0.015586f, -0.050608f, -0.035136f, -0.189770f, -0.051367f, -0.099586f, 0.187630f, 0.129045f, 0.181450f, -0.142436f, -0.248800f, -0.100093f, 0.054633f, -0.188026f, 0.064800f, -0.083332f, 0.167560f, 0.107438f, 0.034918f, -0.037159f, 0.059209f, -0.027318f, -0.149283f, 0.097934f, 0.006148f, 0.204053f, -0.053876f, -0.134661f, -0.044828f, 0.203118f, -0.138802f, -0.169342f, 0.051751f, -0.036277f, -0.077667f, -0.192277f, 0.018968f, -0.073309f, -0.063759f, -0.029467f, 0.103126f, 0.001211f, 0.025708f, -0.119960f, -0.104956f, 0.109725f, -0.196917f, -0.000183f, -0.057040f, -0.108609f, -0.182092f, 0.023765f, -0.039315f, -0.007197f, 0.049300f, 0.090236f, 0.113226f, 0.149934f, -0.129891f, 0.158173f, 0.157177f, -0.092768f, 0.148347f, 0.156089f, -0.243201f, -0.000772f, 0.128928f, 0.054259f, 0.233820f, -0.010586f, 0.184198f, 0.181202f, -0.056026f, 0.201854f, 0.185409f, 0.234219f, 0.150093f, 0.140717f, 0.020264f, -0.031635f, -0.156825f, 0.005594f, -0.098511f, 0.252620f, 0.051734f, 0.297179f, 0.203039f, 0.059257f, -0.102971f, 0.068221f, 0.093799f, 0.292238f, 0.069044f, -0.072752f, 0.122969f, -0.074145f, 0.156446f, 0.155645f, 0.052065f, 0.130872f, 0.119863f, 0.103808f, -0.097961f, 0.020337f, -0.004351f, -0.066984f, -0.153305f, -0.121807f, 0.175198f, 0.027726f, 0.202291f, -0.269508f, 0.001731f, 0.269637f, 0.057919f, -0.071493f, 0.190219f, 0.153772f, 0.238638f, 0.235049f, 0.233583f, -0.177638f, 0.018505f, -0.363622f, 0.119149f, -0.151964f, 0.219008f, 0.040755f, -0.234571f, -0.121650f, -0.086004f, 0.061089f, -0.166820f, -0.029882f, 0.075918f, -0.084723f, -0.133324f, 0.077383f, 0.283487f, 0.089573f, 0.261363f, -0.039891f, -0.189112f, -0.004485f, -0.067057f, -0.021336f, 0.001200f, -0.048295f, -0.122425f, -0.176266f, 0.057436f, -0.233326f, 0.155937f, 0.069809f, 0.261789f, -0.063116f, -0.003214f, 0.050234f, 0.081166f, 0.010089f, 0.032050f, -0.500353f, 0.233668f, 0.271000f, 0.005283f, 0.021613f, -0.070813f, 0.112309f, -0.184059f, 0.137128f, 0.061497f, 0.175128f, 0.005804f, 0.213585f, 0.245988f, 0.224365f, -0.077893f, -0.016312f, -0.013108f, 0.075534f, 0.181385f, -0.111364f, 0.154719f, -0.105406f, 0.002932f, 0.043458f, 0.077315f, -0.176264f, 0.110698f, -0.112884f, -0.083449f, -0.165322f, 0.298245f, 0.653072f, -0.014873f, 0.622414f, -0.113355f, 0.405536f, -0.165306f, 0.290974f, -0.135544f, -0.115474f, -0.380923f, -0.131219f, 0.072455f, 0.531490f, 0.521209f, -0.422971f, 0.580336f, 0.016386f, 0.679305f, 0.449646f, -0.031264f, -0.211800f, -0.282635f, 0.466454f, 0.597651f, 0.436202f, -0.304598f, -0.203124f, -0.100142f, -0.155467f, 0.319197f, 0.537653f, -0.058794f, 0.681352f, 0.025091f, -0.199149f, -0.060928f, 0.682614f, 0.520021f, -0.367766f, 0.456880f, 0.463835f, -0.069871f, 0.516283f, 0.435750f, 0.454343f, -0.331674f, -0.011524f, 0.376083f, -0.365603f, 0.543355f, -0.229392f, -0.247010f, -0.196045f, -0.304079f, 0.546803f, -0.314083f, 0.336967f, 0.493602f, -0.252070f, 0.413175f, 0.084450f, -0.242500f, -0.283018f, 0.112275f, 0.164209f, -0.263862f, -0.210327f, 0.379850f, -0.507901f, 0.456435f, 0.519039f, 0.706433f, -0.211508f, -0.138412f, -0.374718f, -0.255222f, -0.362872f, 0.658448f, -0.071209f, 0.215417f, 0.291476f, 0.423859f, -0.366196f, 0.428538f, 0.699784f, -0.127333f, -0.343723f, -0.525864f, 0.465256f, -0.416142f, 0.429888f, -0.251930f, 0.464475f, 0.085954f, 0.128177f, 0.002280f, -0.229841f, 0.455559f, -0.357030f, 0.569463f, 0.373714f, 0.457484f, -0.400746f, 0.267773f, -0.043190f, 0.449140f, -0.371341f, 0.354807f, -0.445305f, -0.299339f, -0.189487f, 0.482237f, -0.250151f, 0.432487f, -0.284960f, -0.176856f, 0.543484f, 0.399375f, 0.310437f, -0.179287f, 0.319161f, 0.536431f, -0.028111f, 0.557002f, 0.500066f, -0.456027f, 0.273071f, -0.175068f, 0.916251f, -0.662413f, 0.874683f, -0.608421f, 0.656787f, -0.599871f, 0.822216f, -0.566821f, -0.512191f, -0.472484f, -0.465275f, -0.099670f, 0.739960f, 0.830444f, -1.061644f, 0.860201f, 0.118259f, 0.865594f, 0.772745f, -0.722058f, -0.593974f, -0.699095f, 0.746213f, 0.801793f, 0.661830f, -0.468274f, -0.522808f, -0.361711f, 0.016210f, 0.870673f, 0.605597f, -0.175035f, 0.890867f, -0.621067f, -0.671340f, -0.578652f, 1.004516f, 0.474868f, -0.516240f, 0.884025f, 0.712206f, 0.014408f, 0.722677f, 0.812459f, 0.702467f, -0.532403f, -0.201980f, 0.774117f, -0.555899f, 0.810647f, -0.674011f, -0.433712f, -0.584263f, -0.604728f, 0.686213f, -0.507828f, 0.607836f, 0.686003f, -0.174611f, 0.789824f, 0.812858f, -0.677871f, -0.742522f, -0.014382f, 0.535286f, -0.765000f, -0.366505f, 0.628965f, -0.642164f, 0.700997f, 0.592344f, 0.701375f, -0.671545f, -0.684455f, -0.538893f, -0.642167f, -0.683125f, 0.844356f, 0.177393f, 0.824454f, 0.791237f, 0.596042f, -0.413164f, 0.572414f, 0.676565f, -0.454474f, -0.043125f, -0.577079f, 0.684247f, -0.721977f, 0.662877f, -0.704257f, 0.499137f, -0.164634f, -0.052891f, -0.793041f, 0.068265f, 0.835994f, -0.485260f, 0.764008f, 0.850016f, 0.806700f, -0.608747f, 0.621244f, -0.528224f, 0.768877f, -0.613751f, 0.748522f, -0.524189f, -0.644308f, -0.748581f, 0.663308f, -0.604023f, 0.669124f, -0.416794f, -0.487858f, 0.786762f, 0.806775f, 0.835373f, -0.463052f, 0.763647f, 0.873265f, 0.574542f, 0.792920f, 0.815895f, -0.716240f, 0.787816f, -0.666633f, 0.229195f, -0.031411f, 0.156024f, -0.230793f, 0.126822f, -0.219932f, -0.004721f, -0.181182f, -0.256604f, -0.133188f, -0.126890f, 0.114772f, 0.155468f, 0.221595f, 0.016712f, 0.184934f, 0.182771f, -0.037793f, 0.093849f, 0.080171f, -0.235510f, -0.239617f, 0.207506f, 0.028661f, 0.262613f, -0.046733f, -0.272060f, -0.042613f, -0.137836f, 0.244807f, 0.060207f, 0.148505f, 0.332332f, -0.208745f, 0.040270f, -0.140255f, 0.090440f, 0.142023f, -0.300021f, 0.096981f, 0.182005f, -0.054265f, 0.042275f, 0.128943f, 0.179627f, -0.159514f, -0.101611f, 0.000433f, -0.070092f, 0.005644f, -0.264338f, -0.198264f, -0.254363f, 0.018053f, 0.271409f, -0.181415f, 0.175447f, -0.054381f, 0.225851f, -0.009874f, 0.067939f, -0.031975f, -0.064039f, -0.061818f, 0.227191f, -0.084580f, -0.089225f, 0.146497f, 0.081007f, 0.049593f, 0.042254f, 0.005446f, -0.191267f, 0.026374f, -0.073752f, -0.239959f, -0.205311f, 0.082702f, -0.215411f, 0.161158f, 0.124381f, 0.250841f, -0.250813f, 0.071903f, -0.013678f, -0.159814f, 0.043497f, -0.238166f, 0.011268f, -0.136695f, 0.287190f, -0.253310f, 0.160540f, -0.166668f, -0.107370f, 0.174823f, 0.265021f, -0.044068f, -0.200280f, 0.109417f, -0.010253f, 0.064284f, -0.200171f, 0.243885f, -0.162004f, 0.156770f, -0.061506f, 0.069248f, -0.140632f, -0.210614f, -0.082632f, 0.248496f, -0.119909f, 0.254749f, -0.259652f, -0.126490f, 0.264556f, 0.053768f, 0.072220f, 0.003550f, 0.111971f, 0.107290f, 0.139865f, 0.176345f, 0.306522f, 0.051766f, 0.265078f, -0.204521f, 0.067397f, -0.055873f, -0.106628f, -0.014093f, 0.148727f, -0.041587f, 0.114317f, 0.144915f, -0.093017f, -0.168435f, 0.023603f, -0.100734f, 0.072408f, 0.173248f, -0.031596f, 0.174169f, 0.033075f, 0.047017f, -0.020395f, 0.044145f, -0.100859f, -0.001881f, 0.196310f, -0.024600f, 0.077025f, -0.013147f, -0.130567f, 0.089209f, -0.055770f, 0.064478f, 0.121104f, -0.071449f, 0.040560f, 0.125881f, -0.152325f, 0.042315f, -0.037202f, 0.140467f, -0.054184f, -0.062368f, 0.087507f, -0.137679f, -0.020088f, -0.127706f, 0.129035f, 0.087691f, 0.059010f, 0.071542f, -0.028535f, 0.002101f, 0.122813f, -0.043000f, -0.155871f, 0.016526f, -0.086092f, 0.040125f, 0.073103f, -0.065887f, -0.009840f, 0.139269f, -0.075875f, 0.129902f, -0.022195f, 0.095770f, 0.223959f, 0.046442f, -0.163411f, 0.074093f, -0.077733f, 0.149050f, 0.174652f, 0.159351f, 0.043344f, 0.087485f, 0.030947f, -0.090488f, -0.178642f, 0.233326f, 0.078468f, 0.243883f, -0.096598f, 0.137138f, -0.093052f, -0.083236f, -0.047632f, -0.085870f, 0.100651f, 0.074936f, 0.106047f, -0.143374f, 0.144796f, 0.141757f, 0.038827f, 0.079742f, -0.128140f, 0.062930f, -0.093059f, -0.123720f, -0.161614f, 0.133849f, -0.037200f, -0.049498f, -0.141275f, 0.178148f, -0.055649f, -0.136395f, -0.015794f, -0.005133f, -0.073078f, 0.001216f, -0.111058f, 0.091429f, -0.037582f, 0.195801f, 0.124673f, -0.074737f, 0.152282f, -0.081851f, 0.130596f, -0.045705f, 0.002578f, -0.044084f, -0.035622f, 0.077222f, -0.028332f, 0.063631f, 0.003124f, -0.195210f, 0.526001f, -0.520968f, 0.536410f, -0.599180f, 0.390669f, -0.350652f, 0.374898f, -0.560680f, -0.453553f, -0.604310f, -0.466781f, 0.083205f, 0.616036f, 0.422769f, -0.944361f, 0.518035f, 0.124216f, 0.579351f, 0.712788f, -0.828573f, -0.393715f, -0.676552f, 0.655854f, 0.450312f, 0.580505f, -0.505572f, -0.289465f, -0.533831f, -0.134708f, 0.496850f, 0.644469f, 0.005387f, 0.758288f, -0.745008f, -0.599743f, -0.416429f, 0.506918f, 0.640565f, -0.305256f, 0.769255f, 0.594483f, 0.045804f, 0.375053f, 0.603103f, 0.583581f, -0.736468f, 0.052499f, 0.673937f, -0.602868f, 0.392329f, -0.537169f, -0.583975f, -0.384638f, -0.401000f, 0.618923f, -0.572536f, 0.560575f, 0.664272f, -0.195641f, 0.429268f, 0.531243f, -0.544807f, -0.563432f, 0.331297f, 0.557608f, -0.503270f, -0.532512f, 0.530190f, -0.475333f, 0.567719f, 0.632754f, 0.642472f, -0.372851f, -0.491333f, -0.599014f, -0.702370f, -0.717252f, 0.661650f, -0.067465f, 0.806622f, 0.524597f, 0.421393f, -0.507475f, 0.347154f, 0.644080f, -0.810223f, 0.038789f, -0.379871f, 0.639246f, -0.788830f, 0.431939f, -0.854321f, 0.427974f, -0.000951f, -0.074153f, -0.029314f, 0.108205f, 0.370712f, -0.368369f, 0.394647f, 0.502811f, 0.683541f, -0.523087f, 0.680111f, -0.505407f, 0.598963f, -0.508260f, 0.575729f, -0.492809f, -0.793827f, -0.658628f, 0.465868f, -0.475727f, 0.650957f, -0.513351f, -0.449441f, 0.461816f, 0.579652f, 0.460119f, -0.495478f, 0.634397f, 0.484124f, 0.438961f, 0.568660f, 0.514789f, -0.392926f, 0.369106f, -0.831480f, -0.069340f, -0.164581f, -0.035865f, -0.205077f, 0.112994f, -0.219249f, 0.158461f, -0.050780f, -0.099601f, -0.149464f, -0.229436f, 0.152289f, 0.167740f, 0.189618f, -0.142976f, 0.071768f, -0.029843f, 0.214281f, 0.031658f, -0.034053f, -0.026357f, -0.247593f, 0.022057f, 0.075758f, -0.073093f, -0.219176f, -0.279126f, 0.061121f, -0.022595f, -0.078723f, 0.128919f, 0.043035f, 0.068170f, -0.041955f, -0.223096f, 0.084280f, 0.149276f, 0.259857f, -0.312522f, -0.064220f, 0.121334f, -0.107967f, 0.166593f, 0.104707f, 0.204049f, -0.203723f, 0.033708f, 0.264204f, -0.147780f, 0.122510f, -0.247517f, -0.147232f, -0.000836f, -0.027103f, -0.074311f, -0.012588f, 0.052512f, -0.082226f, -0.131925f, -0.011797f, 0.010265f, 0.045063f, -0.050324f, -0.128894f, 0.068093f, -0.139858f, -0.134738f, 0.010657f, -0.218028f, 0.325898f, 0.096468f, 0.079150f, -0.244677f, -0.262394f, -0.110767f, 0.030451f, -0.030532f, 0.137928f, 0.059708f, 0.310638f, 0.297420f, 0.144676f, -0.074565f, 0.118013f, 0.102290f, -0.189482f, -0.106551f, -0.190895f, 0.064514f, 0.005050f, -0.035455f, -0.245359f, 0.277446f, 0.120862f, 0.112769f, -0.055948f, -0.055606f, 0.085126f, -0.197835f, 0.189068f, 0.036374f, 0.075870f, -0.057374f, 0.228066f, -0.001594f, 0.135940f, -0.261824f, 0.199844f, -0.043656f, -0.114950f, -0.162456f, 0.206063f, -0.192651f, 0.124409f, -0.038937f, -0.199702f, 0.096905f, 0.249786f, 0.166792f, -0.163767f, -0.091254f, 0.109785f, 0.059904f, 0.019639f, 0.082502f, -0.054073f, 0.160993f, -0.187821f, -0.021276f, 0.021062f, 0.103104f, -0.078477f, 0.149293f, -0.017138f, -0.140666f, 0.189542f, 0.191082f, 0.041774f, 0.074665f, -0.013308f, -0.126519f, -0.016885f, 0.138789f, 0.041918f, -0.018254f, 0.132952f, 0.288964f, -0.054196f, -0.031127f, -0.051370f, 0.114278f, 0.159378f, 0.156491f, 0.145158f, 0.070146f, 0.086714f, 0.159090f, 0.252255f, -0.045246f, 0.033009f, 0.060328f, 0.163411f, -0.134833f, 0.120845f, -0.041385f, 0.012801f, -0.054159f, 0.060925f, 0.073083f, -0.114946f, 0.140060f, -0.069632f, -0.057021f, 0.020753f, -0.119067f, -0.144257f, 0.044166f, -0.141969f, 0.057156f, -0.046703f, 0.109411f, -0.071063f, 0.097325f, 0.200404f, 0.035026f, 0.178151f, -0.030758f, 0.163620f, -0.080280f, 0.239282f, -0.048393f, 0.337795f, 0.167433f, -0.083630f, 0.044535f, 0.040399f, -0.035546f, -0.085281f, 0.015984f, 0.107750f, 0.096441f, 0.015845f, 0.111908f, 0.202770f, 0.223635f, -0.112461f, 0.007536f, -0.100538f, 0.126394f, 0.016226f, -0.023502f, 0.140536f, -0.078833f, 0.174837f, 0.041034f, 0.136228f, -0.151754f, -0.061551f, 0.048308f, 0.005848f, -0.004141f, -0.125025f, -0.196815f, 0.274473f, -0.432960f, 0.049658f, -0.115118f, -0.084014f, -0.140412f, 0.102777f, -0.059187f, 0.146517f, 0.191383f, 0.167339f, 0.117989f, -0.119973f, 0.100223f, -0.047517f, -0.041822f, 0.049895f, 0.068992f, 0.028727f, -0.160330f, -0.042001f, 0.036282f, -0.150054f, -0.028301f, 0.085293f, 0.267017f, -0.082619f, -0.079560f, 0.109544f, -0.122955f, 0.123332f, -0.145907f, 0.032570f, 0.089599f, 0.127014f, -0.009095f, 0.183601f, -0.135898f, 0.140544f, 0.030881f, 0.172127f, -0.045803f, 0.028083f, 0.062001f, -0.149696f, -0.052546f, -0.135306f, 0.195970f, -0.029727f, -0.106812f, -0.051878f, 0.134354f, -0.015892f, -0.104212f, 0.137296f, 0.154103f, -0.003929f, -0.091993f, 0.102787f, 0.216043f, 0.000622f, 0.148938f, -0.058963f, -0.048574f, -0.017195f, -0.035986f, -0.105846f, 0.171944f, 0.114501f, 0.063896f, -0.134533f, 0.117797f, 0.178354f, -0.001140f, -0.004217f, -0.072684f, -0.053883f, 0.150596f, -0.114446f, -0.274070f, -0.058513f, 0.000738f, 0.169618f, 0.106887f, 0.082273f, 0.231848f, -0.000297f, -0.014377f, 0.096586f, -0.117851f, 0.021550f, -0.086913f, 0.103168f, -0.130722f, 0.006387f, 0.148641f, -0.192195f, -0.144361f, 0.224837f, 0.216474f, -0.159213f, 0.016894f, -0.143431f, 0.153213f, -0.091064f, 0.205883f, 0.060841f, 0.175434f, 0.110489f, 0.173402f, 0.049415f, 0.014892f, -0.186049f, -0.064620f, 0.135465f, -0.080401f, 0.104585f, 0.002509f, 0.105549f, 0.106941f, 0.198608f, -0.043080f, 0.071551f, 0.127873f, 0.174195f, 0.012630f, -0.096331f, 0.146358f, -1.205450f, 0.053612f, -0.093812f, -0.108240f, 0.141903f, -0.087553f, -0.017968f, -0.003328f, -0.162347f, -0.122545f, -0.019052f, 0.212217f, 0.133264f, 0.100912f, 0.169021f, -0.079243f, 0.081150f, 0.053610f, 0.068804f, 0.076318f, 0.126491f, 0.156713f, -0.102987f, 0.080364f, 0.112837f, 0.039154f, 0.062546f, 0.094847f, -0.088609f, -0.187771f, 0.212628f, 0.168030f, -0.074392f, 0.153360f, -0.450958f, 0.386647f, -0.440113f, 0.398808f, -0.256646f, 0.229917f, -0.386019f, -0.373322f, -0.314411f, -0.360511f, -0.064989f, 0.203651f, 0.373862f, -0.311465f, 0.176619f, 0.109491f, 0.366731f, 0.262898f, -0.168293f, -0.193333f, -0.217596f, 0.438884f, 0.279139f, 0.089501f, -0.292606f, -0.292320f, -0.335029f, -0.088805f, 0.406446f, 0.390535f, -0.143920f, 0.318445f, -0.171123f, -0.203511f, -0.177376f, 0.289974f, 0.175658f, -0.312683f, 0.269124f, 0.375480f, 0.050472f, 0.197221f, 0.587273f, 0.277313f, -0.136140f, -0.049081f, 0.185042f, -0.275337f, 0.330907f, -0.158598f, -0.135772f, -0.162076f, -0.105517f, 0.212784f, -0.390262f, 0.487383f, 0.145522f, -0.083308f, 0.090034f, 0.287754f, -0.344788f, -0.178662f, 0.253808f, 0.391519f, -0.399111f, -0.435755f, 0.457881f, -0.394551f, 0.449146f, 0.249778f, 0.199682f, -0.130630f, -0.239753f, -0.083475f, -0.195380f, -0.179509f, 0.257650f, 0.265332f, 0.335277f, 0.363945f, 0.277680f, -0.231407f, 0.277561f, 0.311994f, -0.299573f, 0.246344f, -0.206954f, 0.372398f, -0.266469f, 0.105226f, -0.193941f, 0.286160f, 0.139169f, 0.046583f, 0.163019f, -0.095620f, 0.168472f, -0.418651f, 0.152992f, 0.337230f, 0.344090f, -0.238934f, 0.190347f, -0.389905f, 0.260039f, -0.334599f, 0.387270f, -0.402542f, -0.294416f, -0.363651f, 0.295232f, -0.442867f, 0.387198f, -0.091024f, -0.306470f, 0.427971f, 0.388282f, 0.118737f, -0.395292f, 0.254905f, 0.431091f, 0.147524f, 0.405125f, 0.396381f, -0.183955f, 0.444937f, -0.417786f, 0.516794f, -0.420496f, 0.469351f, -0.409436f, 0.325581f, -0.489367f, 0.509957f, -0.444065f, -0.578871f, -0.424429f, -0.380394f, -0.035025f, 0.256712f, 0.202149f, -0.689623f, 0.292658f, -0.019511f, 0.496990f, 0.332938f, -0.437670f, -0.487990f, -0.582311f, 0.386332f, 0.466489f, 0.395010f, -0.476246f, -0.366450f, -0.229360f, -0.029878f, 0.300466f, 0.430944f, 0.007093f, 0.376009f, -0.533049f, -0.209839f, -0.565137f, 0.471006f, 0.330266f, -0.643268f, 0.460118f, 0.226847f, 0.093782f, 0.413399f, 0.600352f, 0.550917f, -0.428360f, -0.058202f, 0.320433f, -0.495063f, 0.443525f, -0.266099f, -0.464817f, -0.253028f, -0.261503f, 0.373864f, -0.480829f, 0.530338f, 0.474734f, 0.087494f, 0.473209f, 0.492100f, -0.547260f, -0.422002f, -0.005524f, 0.495557f, -0.348435f, -0.198409f, 0.538697f, -0.291822f, 0.433792f, 0.295329f, 0.279623f, -0.439096f, -0.372888f, -0.213172f, -0.326881f, -0.386300f, 0.368408f, 0.308709f, 0.471993f, 0.361468f, 0.411202f, -0.294070f, 0.223245f, 0.483334f, -0.309249f, 0.051046f, -0.434837f, 0.427140f, -0.412928f, 0.214407f, -0.517985f, 0.233522f, -0.005771f, 0.054808f, -0.035658f, 0.170599f, 0.347863f, -0.486903f, 0.417481f, 0.592343f, 0.345894f, -0.489874f, 0.337305f, -0.420441f, 0.428279f, -0.644991f, 0.437379f, -0.377296f, -0.462224f, -0.367064f, 0.427101f, -0.589047f, 0.229768f, -0.396829f, -0.487959f, 0.269667f, 0.267189f, 0.411766f, -0.172258f, 0.348835f, 0.356538f, 0.366446f, 0.272100f, 0.311835f, -0.464423f, 0.243623f, -0.520018f, -0.225614f, 0.069082f, -0.078483f, -0.060281f, 0.035995f, 0.079188f, -0.170009f, 0.178184f, 0.214020f, 0.237898f, 0.208004f, -0.156307f, -0.003347f, 0.104493f, 0.056453f, -0.284114f, 0.022361f, -0.198295f, 0.109098f, 0.208462f, 0.190763f, 0.100347f, -0.124101f, -0.320996f, 0.060341f, 0.244950f, 0.215587f, 0.008255f, -0.077955f, -0.078768f, -0.102504f, 0.127896f, -0.228915f, 0.246831f, -0.139028f, 0.252142f, -0.242789f, -0.021510f, -0.023776f, -0.272402f, 0.058684f, -0.100353f, -0.071563f, 0.076912f, -0.129597f, 0.168625f, 0.146990f, -0.125055f, 0.202412f, -0.131181f, -0.023685f, 0.118663f, 0.262001f, 0.216506f, 0.169986f, 0.100555f, -0.070469f, 0.017579f, 0.056013f, 0.050006f, 0.042166f, 0.139331f, 0.049352f, -0.002979f, 0.099466f, 0.138856f, 0.056937f, -0.031363f, 0.189322f, 0.032963f, -0.218974f, -0.000861f, 0.242886f, 0.126632f, 0.056687f, -0.036507f, 0.195407f, -0.105939f, 0.043634f, -0.122129f, 0.028486f, -0.034014f, 0.023526f, 0.047675f, -0.255145f, 0.181175f, 0.092707f, 0.031853f, 0.015402f, 0.113213f, -0.165710f, 0.015812f, -0.264804f, -0.193343f, 0.060598f, 0.194563f, -0.138137f, 0.031226f, 0.028140f, -0.060827f, -0.056739f, 0.059623f, 0.256522f, -0.139714f, 0.051804f, 0.063325f, 0.167669f, -0.292023f, 0.022976f, 0.052599f, 0.245831f, 0.034282f, 0.070159f, -0.058446f, 0.218045f, 0.069159f, -0.031458f, -0.232452f, -0.148236f, -0.027742f, 0.068247f, -0.191575f, 0.007589f, -0.173129f, -0.162041f, 0.163279f, -0.067033f, 0.156596f, -0.206317f, 0.174700f, -0.066135f, -0.055625f, 0.017463f, 0.009135f, -0.044527f, 0.050379f, -0.062043f, -0.066276f, 0.057265f, -0.095238f, -0.000225f, -0.048471f, 0.122026f, 0.082444f, 0.014055f, -0.166481f, 0.085096f, 0.199236f, -0.004468f, -0.016566f, 0.146055f, -0.082448f, 0.107936f, -0.099539f, -0.055816f, -0.067330f, 0.048498f, 0.230996f, -0.031791f, 0.157070f, -0.081375f, 0.137162f, 0.090421f, 0.112084f, -0.091815f, -0.229165f, -0.094604f, 0.044213f, -0.119849f, -0.107133f, 0.091317f, 0.014071f, -0.166355f, 0.030908f, -0.190395f, 0.033988f, -0.124370f, -0.045034f, 0.116635f, 0.094177f, 0.149170f, 0.138801f, 0.184678f, -0.109841f, -0.189951f, -0.115264f, 0.184153f, -0.140534f, -0.286863f, -0.087605f, 0.004922f, -0.053816f, 0.142555f, 0.054330f, 0.146142f, -0.095718f, -0.022750f, -0.089656f, -0.045938f, -0.216109f, 0.156202f, 0.208557f, -0.044649f, -0.062637f, -0.027544f, -0.139958f, -0.093703f, -0.284966f, -0.132705f, -0.108434f, 0.089716f, -0.134434f, -0.003955f, -0.034746f, 0.265293f, -0.061785f, -0.041455f, -0.061748f, 0.074007f, -0.042417f, -0.095960f, -0.042172f, -0.053795f, -0.267755f, 0.273618f, -0.074702f, -0.000640f, -0.139671f, -0.189271f, -0.077788f, 0.086355f, -0.013103f, -0.054655f, 0.068949f, 0.046164f, -0.144629f, 0.203565f, 0.114139f, -0.067981f, -0.074908f, 0.177546f, -0.115221f, 0.151218f, -0.003875f, -0.097382f, -0.030305f, 0.122601f, 0.120690f, 0.198203f, 0.051982f, 0.025482f, -0.006980f, 0.053556f, 0.102050f, 0.151226f, 0.037666f, 0.148478f, -0.003552f, 0.147945f, 0.182157f, 0.221155f, -0.032547f, -0.080366f, 0.003400f, 0.170164f, 0.151444f, 0.069851f, -0.124016f, 0.155266f, -0.024935f, -0.162975f, -0.073276f, 0.156791f, 0.137632f, -0.086268f, 0.030754f, 0.195491f, 0.166036f, 0.019328f, 0.019731f, 0.180324f, -0.043775f, 0.131800f, 0.035843f, -0.010614f, -0.153470f, 0.069784f, -0.014339f, 0.281175f, 0.138078f, 0.062244f, -0.112882f, -0.070506f, 0.034327f, 0.011908f, 0.182827f, 0.176497f, -0.152171f, 0.208849f, 0.096449f, 0.128803f, 0.004526f, 0.735685f, 0.138492f, -0.011144f, -0.007285f, 0.010836f, 0.042302f, -0.094967f, 0.039396f, -0.206333f, -0.019887f, 0.052339f, -0.113740f, -0.999722f, -0.054037f, 0.299632f, 0.074940f, 0.078840f, -1.357710f, 0.168375f, 0.071437f, 0.126395f, 0.074613f, 0.041050f, -0.041396f, 0.100336f, 0.216428f, -0.109082f, 0.088906f, -0.116209f, 0.093412f, 0.122908f, 0.247256f, 0.184329f, -0.023292f, 0.155805f, -0.025821f, 0.000867f, 0.122772f, -0.011026f, 0.162769f, -0.061630f, 0.083821f, 0.156430f, 0.211778f, 0.277145f, -0.026017f, 0.154863f, -0.038695f, 0.058166f, -1.181727f, -0.298762f, -0.105369f, 0.018873f, 0.090782f, -0.030433f, 0.248172f, -0.084946f, -0.062337f, -0.130278f, 0.173662f, 0.082771f, -0.139255f, 0.078830f, -0.007815f, 0.050541f, 0.232801f, 0.057624f, 0.171673f, -0.071692f, 0.028279f, 0.221290f, 0.178588f, 0.011882f, 0.011272f, -0.081410f, 0.167010f, 0.258731f, 0.126061f, -0.017754f, 0.000950f, 0.148912f, -0.075862f, 0.028195f, -0.204972f, 0.234388f, -0.098208f, 0.210525f, -0.033673f, 0.279228f, -0.294994f, -0.144621f, -0.142471f, -0.064538f, 0.088863f, 0.174528f, 0.231125f, 0.047572f, 0.269112f, -0.049640f, 0.072818f, 0.296556f, 0.036191f, -0.062814f, 0.053478f, 0.078672f, -0.054885f, 0.151623f, -0.000744f, 0.061697f, -0.025441f, 0.167012f, 0.133106f, 0.192324f, 0.066091f, 0.373020f, 0.030466f, -0.087790f, 0.048086f, 0.150939f, 0.056690f, -0.199309f, 0.217753f, 0.320889f, -0.065623f, 0.169244f, 0.101175f, 0.265607f, -0.266822f, 0.236854f, 0.110044f, -0.093884f, 0.236093f, -0.250831f, -0.019743f, -0.075113f, -0.227812f, 0.137739f, 0.010738f, 0.274916f, 0.026418f, 0.051085f, 0.315041f, 0.005752f, -0.125606f, -0.005191f, 0.039622f, -0.007120f, -0.172562f, -0.251204f, 0.143046f, -0.181867f, 0.135648f, 0.115193f, 0.020432f, -0.130283f, -0.165743f, -0.136716f, -0.246518f, -0.233131f, 0.063023f, 0.034056f, -0.066403f, 0.078860f, 0.124807f, -0.316485f, 0.203533f, 0.169440f, -0.204371f, -0.178298f, -0.161351f, 0.206068f, -0.121152f, 0.158268f, -0.116257f, 0.034765f, -0.119555f, -0.024929f, -0.057361f, -0.089857f, -0.053952f, -0.180775f, 0.153729f, 0.243539f, 0.235318f, -0.269202f, 0.127081f, -0.192564f, 0.245614f, 0.094649f, 0.172885f, -0.005684f, -0.227295f, -0.014196f, 0.006786f, -0.215210f, 0.217103f, -0.324738f, -0.290842f, 0.073603f, 0.202758f, 0.279673f, 0.069217f, 0.317837f, 0.213157f, -0.177267f, 0.311196f, 0.068377f, -0.127923f, 0.027689f, -0.156762f, 0.210143f, -1.014121f, 0.358984f, -0.880630f, 0.343694f, -0.816020f, 0.461168f, -0.845907f, -1.168775f, -1.172054f, -1.025763f, 0.151782f, 0.521150f, 0.449805f, -1.033870f, 0.194645f, -0.040418f, 0.225334f, -0.073273f, -1.257792f, -1.030664f, -0.967150f, 0.386153f, 0.233206f, 0.366627f, -1.167607f, -0.860131f, -0.651787f, 0.114745f, 0.012341f, 0.381246f, 0.114594f, 0.410224f, -1.130082f, -0.776015f, -0.785252f, 0.335004f, 0.443754f, -0.859582f, 0.343009f, 0.317562f, -0.017101f, 0.474737f, 0.195914f, 0.635568f, -0.925560f, -0.026406f, 0.541409f, -1.213505f, 0.453199f, -0.769201f, -0.936617f, -1.054439f, -0.857094f, -0.046409f, -0.961632f, 0.272414f, 0.427652f, -0.164215f, 0.292878f, 0.450683f, -1.155118f, -0.868468f, -0.024334f, 0.235765f, -1.054189f, -0.795850f, 0.485021f, -0.732278f, 0.378134f, 0.498496f, 0.211151f, -1.053230f, -1.072657f, -0.664114f, -1.142265f, -1.069341f, 0.389536f, -0.549795f, 0.294846f, 0.207190f, 0.305828f, -1.039145f, 0.192127f, 0.229323f, -1.114354f, -0.000128f, -1.070154f, 0.516204f, -1.248140f, 0.434811f, -1.229738f, 0.555838f, 0.158142f, -0.055989f, 0.244228f, -0.239395f, 0.386180f, -0.743234f, 0.201063f, 0.455337f, 0.204605f, -0.901024f, 0.435148f, -0.903756f, 0.261754f, -0.936448f, 0.418913f, -0.755724f, -1.002213f, -0.344986f, 0.389097f, -0.211635f, 0.416834f, -0.810268f, -0.960214f, 0.462079f, 0.317212f, 0.309372f, -0.766593f, 0.101871f, 0.248116f, 0.382884f, 0.188003f, 0.238614f, -0.291407f, 0.270066f, -1.119837f, 0.000003f, 0.121465f, 0.100030f, -0.236006f, 0.014187f, -0.130810f, 0.018993f, 0.065060f, -0.046597f, -0.012894f, 0.008686f, -0.006642f, 0.037483f, 0.038557f, 0.030640f, 0.286140f, 0.017326f, 0.195179f, 0.126935f, 0.085593f, -0.132919f, -0.083589f, 0.201494f, 0.250937f, 0.198060f, -0.152744f, 0.062074f, -0.125219f, -0.062455f, 0.046957f, 0.045578f, -0.083415f, 0.167577f, -0.180702f, 0.063363f, 0.100624f, 0.019903f, 0.065000f, -0.082985f, 0.085506f, -0.023768f, -0.152743f, 0.224836f, 0.314472f, -0.099763f, 0.076865f, -0.078045f, 0.043460f, 0.103778f, 0.088634f, -0.264294f, -0.164576f, -0.205153f, -0.104598f, 0.170153f, 0.013149f, 0.212193f, 0.075957f, 0.115326f, 0.241400f, 0.040521f, -0.181158f, -0.152116f, -0.091859f, 0.078096f, -0.193725f, -0.157178f, 0.210083f, -0.127897f, 0.009746f, 0.191881f, 0.191868f, -0.242311f, -0.037167f, 0.008838f, -0.146394f, 0.039655f, 0.042025f, 0.100714f, 0.176197f, -0.096790f, 0.196721f, -0.265551f, -0.080163f, 0.137342f, -0.209518f, -0.088592f, -0.101305f, 0.063421f, 0.087791f, 0.239361f, 0.128827f, 0.129825f, -0.084638f, -0.179363f, 0.249642f, -0.766788f, 0.073840f, 0.055718f, 0.167348f, 0.175833f, 0.011644f, -0.043870f, 0.074276f, -0.110931f, 0.164209f, -0.124514f, 0.106136f, -0.080785f, -0.124958f, 0.089942f, 0.233691f, 0.045077f, 0.149035f, -0.104167f, -0.071768f, 0.118717f, -0.035863f, 0.112912f, -0.127729f, 0.089819f, 0.075907f, -0.021469f, 0.017537f, 0.148736f, -0.037456f, -0.058177f, -0.045176f, 0.088001f, -0.000239f, 0.122655f, 0.249035f, -0.065926f, 0.117689f, 0.003536f, 0.129574f, 0.177646f, 0.237741f, 0.027311f, -0.129203f, 0.141601f, 0.124998f, 0.095768f, 0.093854f, -0.023634f, -0.045556f, -0.058527f, -0.038885f, 0.213712f, 0.005571f, -0.128807f, 0.036393f, 0.126485f, 0.221015f, 0.001124f, 0.113408f, -0.165845f, 0.097372f, -0.115611f, -0.034342f, 0.243530f, -0.041495f, 0.146344f, 0.186225f, 0.166414f, -0.000976f, 0.235681f, 0.116692f, 0.040406f, -0.049902f, -0.056366f, -0.163781f, -0.079735f, 0.172524f, -0.226183f, -0.209928f, 0.200681f, -0.078622f, 0.143493f, 0.195358f, 0.187745f, 0.039671f, -0.156713f, 0.197822f, -0.095785f, 0.031654f, -0.127853f, -0.053475f, -0.085181f, 0.116270f, -0.114299f, -0.082632f, -0.142157f, 0.021524f, -0.072940f, -0.166064f, 0.217479f, -0.039090f, -0.053526f, -0.073475f, 0.005226f, -0.022744f, 0.161897f, -0.035334f, -0.066591f, 0.080347f, 0.124732f, 0.072587f, 0.035509f, -0.141320f, 0.074093f, -0.016320f, 0.078442f, 0.205266f, 0.050085f, 0.157477f, -0.164057f, 0.254332f, -0.026651f, 0.087461f, -0.142210f, 0.082647f, -0.105880f, -0.068187f, 0.106658f, 0.212860f, -0.063227f, 0.156328f, 0.016168f, -0.074012f, 0.161929f, 0.022950f, 0.182020f, 0.090223f, 0.160910f, 0.097767f, 0.129758f, 0.204235f, 0.217071f, -0.100747f, 0.087105f, -0.092803f, -0.018010f, -0.080321f, -0.090865f, -0.083272f, -0.138711f, 0.259393f, -0.066970f, 0.188602f, -0.211252f, 0.031463f, 0.002775f, 0.038327f, -0.054700f, 0.199699f, 0.119636f, 0.272143f, 0.183567f, 0.251465f, 0.134764f, 0.066233f, 0.088659f, -0.084239f, -0.004801f, 0.157050f, 0.250937f, -0.115277f, 0.155734f, 0.129741f, 0.169110f, 0.056216f, -0.111090f, -0.147108f, -0.090232f, 0.097420f, -0.008073f, 0.039368f, 0.108847f, -0.091918f, 0.033529f, 0.172212f, -0.004473f, 0.177217f, 0.059826f, -0.138731f, 0.004854f, -0.172013f, -0.018078f, 0.019468f, 0.241166f, 0.201078f, 0.147690f, 0.063451f, 0.028188f, -0.209184f, 0.083183f, -0.162790f, 0.078985f, -0.087312f, -0.023566f, 0.189284f, -0.167978f, 0.101180f, 0.253395f, -0.178120f, -0.073601f, 0.154459f, 0.109206f, -0.048902f, 0.145383f, 0.106548f, 0.088742f, 0.192428f, -0.243730f, 0.116004f, 0.113836f, -0.020665f, 0.153967f, -0.097283f, -0.146767f, -0.073163f, 0.142768f, -0.166758f, 0.016386f, -0.114409f, -0.144208f, -0.178894f, 0.053670f, 0.061014f, 0.235005f, 0.103755f, 0.180928f, -0.019176f, -0.106878f, -0.185340f, -0.170357f, -0.196203f, 0.172669f, 0.097139f, 0.023215f, 0.161631f, -0.007085f, -0.025325f, -0.070603f, 0.145912f, -0.135643f, 0.145663f, -0.032242f, 0.098333f, -0.130314f, -0.160500f, -0.067834f, -0.042875f, -0.015734f, -0.068837f, 0.128695f, -0.074971f, 0.085379f, 0.064776f, 0.073811f, -0.082090f, 0.198266f, 0.059183f, 0.183730f, 0.039712f, 0.178350f, 0.078046f, -0.012240f, -0.121027f, -0.033395f, 0.255390f, 0.127403f, -0.046755f, 0.003592f, 0.151802f, 0.138150f, -0.058219f, 0.071421f, -0.145616f, -0.032715f, -0.053645f, -0.171625f, 0.282118f, -0.192578f, 0.140354f, -0.201204f, 0.184052f, -0.198149f, 0.094148f, 0.081178f, 0.109692f, 0.243530f, 